0.03899741172790527
0.12938152253627777
-0.1921321004629135
-0.1862555593252182
-0.07443256676197052
-0.15315549075603485
-0.1755637228488922
0.09292726218700409
0.03435732424259186
0.12791858613491058
-0.09986506402492523
-0.10963865369558334
0.0023196041584014893
0.157420352101326
0.1351674646139145
-0.1515698879957199
-0.05001169443130493
0.061443522572517395
-0.08030001074075699
0.029743582010269165
-0.05845709145069122
-0.08573968708515167
-0.0434817373752594
0.0020812302827835083
-0.012382149696350098
-0.061914145946502686
0.028019621968269348
-0.04196266829967499
-0.03919936716556549
0.1389857679605484
-0.15472084283828735
-0.19235055148601532
0.1845545917749405
0.1535010188817978
0.06373555958271027
0.09918643534183502
0.09232966601848602
0.03932054340839386
0.037938326597213745
0.11681757867336273
-0.16709266602993011
0.17670805752277374
0.11950169503688812
-0.02157767117023468
-0.12744246423244476
-0.1048438549041748
-0.1909579038619995
0.18654407560825348
0.0999116450548172
-0.13938012719154358
0.14143995940685272
-0.04629477858543396
-0.0029853135347366333
-0.022575154900550842
-0.17522048950195312
-0.025552824139595032
-0.17678478360176086
-0.12007005512714386
0.12758322060108185
-0.18373942375183105
0.05049233138561249
0.12563945353031158
0.11955179274082184
0.17602767050266266
-0.09865867346525192
0.06617282330989838
-0.18850648403167725
-0.03276410698890686
-0.03487172722816467
0.01722647249698639
0.19154955446720123
0.10836048424243927
-0.19075021147727966
-0.021351367235183716
-0.17635056376457214
0.1349044293165207
0.13365857303142548
-0.044259145855903625
0.0313350111246109
0.0806712657213211
0.09849907457828522
-0.14160466194152832
0.04597720503807068
-0.07916390895843506
0.13061757385730743
0.07483468949794769
0.11021547019481659
0.06018941104412079
0.14631472527980804
0.07048900425434113
-0.011398017406463623
-0.13698305189609528
-0.09235521405935287
-0.15072001516819
-0.14904361963272095
-0.08065712451934814
0.09630803763866425
-0.0911005511879921
0.0713096410036087
0.061892226338386536
0.18536032736301422
-0.1376732885837555
-0.021918639540672302
0.0954618901014328
-0.0797969251871109
-0.14397166669368744
0.057983025908470154
0.1679190844297409
0.02648523449897766
0.13274060189723969
-0.09056185185909271
-0.13174748420715332
-0.12353423237800598
0.024636507034301758
-0.13919107615947723
-0.15965239703655243
0.017690330743789673
0.029887542128562927
-0.18375341594219208
-0.057289257645606995
-0.06585752964019775
0.04386524856090546
-0.019609898328781128
-0.14449717104434967
0.09683145582675934
-0.08095305413007736
-0.04998898506164551
0.1751202493906021
0.12026698887348175
0.1598004251718521
-0.09260498732328415
0.1229494959115982
-0.11821399629116058
-0.027038395404815674
-0.09673577547073364
0.13830797374248505
-0.08057323098182678
-0.003063887357711792
0.14937396347522736
-0.13329623639583588
-0.14265671372413635
-0.04976370930671692
-0.013568773865699768
0.08295188844203949
-0.17464426159858704
-0.04385291039943695
0.16031570732593536
-0.044511497020721436
0.0407436341047287
-0.17638272047042847
0.18828783929347992
-0.003359287977218628
0.10381676256656647
-0.022746145725250244
-0.1748528927564621
-0.12535381317138672
0.18219704926013947
-0.09320174902677536
0.1500062793493271
-0.1621130257844925
0.18121598660945892
0.055224329233169556
0.12908004224300385
-0.09239999949932098
-0.004752606153488159
-0.12581273913383484
0.1411503404378891
0.01661454141139984
-0.17436611652374268
0.02197544276714325
-0.0921156108379364
0.17543675005435944
-0.023463070392608643
-0.03219535946846008
0.08275823295116425
-0.13989727199077606
0.0008751153945922852
-0.08573080599308014
-0.04407951235771179
-0.027797773480415344
0.03795044124126434
0.13511167466640472
0.13918982446193695
0.0668715089559555
-0.1499880999326706
0.1472301334142685
0.04290139675140381
-0.04709048569202423
0.012626320123672485
0.1897820383310318
-0.14778786897659302
0.07914687693119049
0.18547619879245758
-0.09620990604162216
-0.18554118275642395
-0.053649142384529114
-0.11461864411830902
-0.04402604699134827
0.09469209611415863
-0.08785710483789444
-0.0038637667894363403
-0.14737389981746674
0.07903192937374115
0.06555266678333282
0.11366431415081024
-0.029085174202919006
-0.15477964282035828
-0.015071406960487366
0.17538829147815704
-0.1647823005914688
-0.03208954632282257
-0.10254194587469101
0.11593009531497955
0.009846389293670654
0.12497042119503021
0.12421105802059174
0.0020957887172698975
0.18654029071331024
-0.14340493083000183
-0.1089942678809166
-0.004512131214141846
0.003540724515914917
0.032397300004959106
-0.026494264602661133
0.17764337360858917
0.14526499807834625
-0.16733603179454803
0.022692665457725525
0.008901163935661316
-0.08067470043897629
-0.03442145884037018
-0.041789710521698
-0.1004936471581459
-0.055211395025253296
0.0020187199115753174
0.1679612249135971
-0.1673588752746582
0.09921623766422272
-0.04277694225311279
-0.13513699173927307
0.19136343896389008
0.13950656354427338
-0.02530495822429657
0.18806834518909454
-0.054608508944511414
0.19151373207569122
0.052123770117759705
0.1317455917596817
0.16867201030254364
-0.13908430933952332
-0.1545875072479248
0.10141603648662567
0.17832143604755402
-0.14585688710212708
-0.010924652218818665
-0.059486836194992065
0.18777410686016083
-0.16400893032550812
-0.15745095908641815
-0.057068124413490295
-0.14690668880939484
0.009151220321655273
-0.011637568473815918
0.17844565212726593
-0.14212806522846222
-0.05419240891933441
0.022573262453079224
0.0005930662155151367
-0.18679846823215485
-0.00705525279045105
0.13749514520168304
0.0904780775308609
-0.13269302248954773
0.1504121869802475
-0.09064246714115143
0.1354704350233078
-0.18167611956596375
-0.029548034071922302
0.1436782330274582
0.010150864720344543
-0.10557905584573746
-0.15239109098911285
-0.007048442959785461
0.13274525105953217
-0.1692771166563034
-0.00499214231967926
0.1128772646188736
0.0015091150999069214
0.14542849361896515
0.07772763073444366
-0.0353584885597229
-0.11698417365550995
0.09483836591243744
0.17366521060466766
0.13452006876468658
0.08778657019138336
-0.09833266586065292
0.16559059917926788
0.16105924546718597
0.10142792761325836
0.054128795862197876
0.15935783088207245
0.07206650078296661
-0.021220281720161438
0.1654258817434311
-0.05904339253902435
0.11038555204868317
0.15190137922763824
0.011922761797904968
0.032625481486320496
-0.04609675705432892
-0.05742479860782623
0.050658613443374634
-0.05137890577316284
-0.13549624383449554
-0.12968841195106506
0.05069756507873535
0.05787740647792816
-0.027678072452545166
0.009144231677055359
0.1344219595193863
-0.17473722994327545
0.17538444697856903
-0.10587204247713089
-0.07053449749946594
0.0018137842416763306
0.10746423900127411
-0.09379834681749344
0.026854082942008972
-0.12719830870628357
0.05806751549243927
0.002790302038192749
-0.11139492690563202
0.0945088118314743
0.04337872564792633
-0.11771223694086075
-0.05637681484222412
0.0063889771699905396
-0.1674618124961853
-0.0864269956946373
-0.15393540263175964
-0.11618930846452713
0.05285276472568512
0.09112639725208282
0.11209051311016083
-0.02368636429309845
0.0493866503238678
-0.1412542313337326
-0.07802840322256088
0.05858798325061798
-0.09838263690471649
0.13256610929965973
-0.10884973406791687
-0.022228389978408813
0.0639079362154007
-0.1808614581823349
-0.1568104773759842
0.0014362931251525879
0.014736965298652649
0.124616339802742
-0.14452317357063293
-0.1681772768497467
-0.13053102791309357
0.026907220482826233
-0.1559564620256424
-0.0739230290055275
-0.03514458239078522
-0.12124458700418472
-0.07743136584758759
0.07096235454082489
0.08801291882991791
0.14432968199253082
-0.07809124141931534
0.02799314260482788
-0.0439186692237854
0.11014766991138458
0.08674202859401703
0.07674278318881989
-0.10432778298854828
-0.18759621679782867
0.034940049052238464
-0.10589365661144257
0.05476608872413635
-0.15102753043174744
-0.14906764030456543
-0.1443600356578827
-0.08755642920732498
-0.06411699950695038
0.13503943383693695
-0.15192557871341705
0.04849918186664581
0.09642823040485382
0.007627204060554504
0.08133901655673981
0.11155243217945099
0.017776072025299072
-0.06271672248840332
-0.06759631633758545
0.06929723918437958
-0.18552803993225098
0.07711298763751984
-0.03655637800693512
0.09818057715892792
-0.1603340208530426
-0.15614518523216248
-0.018398478627204895
0.03450798988342285
0.04439514875411987
0.15849773585796356
-0.037043496966362
0.14659489691257477
0.07097293436527252
-0.025534912943840027
-0.16141372919082642
-0.1740284562110901
-0.18513019382953644
0.015855148434638977
-0.19215461611747742
0.1125296801328659
0.010503008961677551
-0.06908868253231049
-0.10178552567958832
0.14550180733203888
-0.004388198256492615
-0.019516602158546448
-0.08936488628387451
-0.09282419085502625
0.0568239688873291
-0.09149967133998871
0.12858198583126068
-0.1276850700378418
-0.09005431085824966
-0.04527796804904938
-0.09534355252981186
0.10465054214000702
-0.1900419294834137
-0.16685466468334198
-0.16952206194400787
-0.016110792756080627
0.02501414716243744
0.16066212952136993
-0.1624583899974823
-0.19084757566452026
-0.11619759351015091
-0.0014979839324951172
-0.10777181386947632
-0.07316219061613083
-0.1220746710896492
-0.08827672898769379
0.11157630383968353
-0.05527330935001373
0.011281237006187439
-0.1215021088719368
-0.1724747270345688
0.11931048333644867
-0.08358560502529144
0.04743011295795441
0.1374213844537735
0.14550171792507172
0.18175305426120758
-0.018743440508842468
-0.06442239880561829
-0.0626249760389328
-0.10636746883392334
0.10123009979724884
0.015637770295143127
0.006468594074249268
0.06714959442615509
0.10024534165859222
0.15026696026325226
0.163373664021492
0.07200737297534943
0.18587900698184967
0.03041863441467285
0.035779014229774475
0.10586826503276825
-0.11404110491275787
-0.11026529222726822
-0.14420108497142792
0.1896972507238388
-0.08110490441322327
-0.05882789194583893
-0.1854815036058426
0.12903939187526703
0.1379619985818863
-0.16738058626651764
-0.07617594301700592
-0.04680192470550537
-0.1160026341676712
0.038369059562683105
-0.06643229722976685
0.0810273140668869
0.13372491300106049
-0.021942302584648132
-0.13006865978240967
0.08358685672283173
-0.015118628740310669
0.027375787496566772
-0.13035798072814941
-0.10343768447637558
0.0039037317037582397
-0.06746526807546616
-0.13032293319702148
0.1765916794538498
0.09635324776172638
-0.19221705198287964
0.027753770351409912
-0.005862399935722351
0.05356840789318085
0.02272145450115204
-0.10086491703987122
0.18249253928661346
0.18452070653438568
0.09968321025371552
0.1230064183473587
-0.15098698437213898
0.06511421501636505
-0.05073493719100952
0.14922864735126495
-0.1416635811328888
-0.09816525876522064
0.156542107462883
0.024309128522872925
-0.16322901844978333
0.05358383059501648
-0.0220441073179245
-0.13128983974456787
-0.1533694565296173
0.07181109488010406
-0.16782373189926147
-0.13516002893447876
-0.050399571657180786
0.044993072748184204
0.07096411287784576
0.16972042620182037
-0.09869702905416489
0.1769876927137375
-0.1303596794605255
-0.06416414678096771
0.15483875572681427
-0.04997962713241577
0.1438388079404831
-0.13731998205184937
0.0843130499124527
-0.030824199318885803
-0.11642646044492722
0.05563235282897949
0.08277739584445953
-0.16072401404380798
0.02644042670726776
0.018160805106163025
0.1073913425207138
0.14966969192028046
-0.052817463874816895
-0.08091040700674057
0.08376039564609528
0.15529756247997284
0.04482962191104889
0.17763568460941315
-0.004424586892127991
0.13554294407367706
-0.06941282749176025
0.11304192245006561
0.0003983229398727417
-0.1742284893989563
-0.016738414764404297
-0.1850217580795288
-0.03199596703052521
-0.102357879281044
0.15699045360088348
0.13524793088436127
0.1908809095621109
0.12236525118350983
0.050790175795555115
-0.16910289227962494
-0.0657438337802887
-0.11266931891441345
0.12832914292812347
-0.06775764375925064
-0.16379493474960327
-0.026160508394241333
-0.16025695204734802
0.12110300362110138
0.12564902007579803
0.15279199182987213
-0.13905176520347595
-0.17434526979923248
0.14644862711429596
0.0031440407037734985
-0.0924668088555336
-0.05501373112201691
0.05080565810203552
0.024679452180862427
0.031021982431411743
-0.10261116176843643
0.00305725634098053
-0.17734196782112122
-0.17088116705417633
0.1556379646062851
-0.11106275022029877
0.07660479843616486
0.015022456645965576
-0.14600764214992523
0.04401940107345581
-0.09587807208299637
-0.18538686633110046
-0.14899228513240814
-0.017284974455833435
0.03517574071884155
-0.015517309308052063
0.13317497074604034
-0.04851844906806946
-0.1802663952112198
0.09739352762699127
-0.17010129988193512
-0.0836452767252922
-0.0636315792798996
-0.1375676989555359
-0.18023799359798431
0.0860295444726944
0.02071097493171692
-0.13424430787563324
0.0418718159198761
-0.13438372313976288
-0.11344800889492035
-0.13142462074756622
0.12161345779895782
0.13053743541240692
-0.12055078148841858
-0.0039810240268707275
-0.03283332288265228
-0.005481839179992676
0.13517768681049347
0.16444016993045807
0.004753544926643372
-0.1277102679014206
-0.09780874103307724
-0.015369996428489685
-0.11721464991569519
-0.03508050739765167
-0.08476316183805466
-0.005659207701683044
0.04649972915649414
-0.04633675515651703
0.02630738914012909
-0.031118720769882202
-0.1514342576265335
0.10683883726596832
-0.18038323521614075
0.06868420541286469
-0.18575602769851685
-0.11638069152832031
0.08066694438457489
0.006218090653419495
0.16594190895557404
0.08442683517932892
0.08436591923236847
-0.12336799502372742
0.16380037367343903
0.00490078330039978
-0.14622169733047485
0.07579131424427032
-0.09907350689172745
-0.1012541726231575
0.1466967612504959
-0.11813920736312866
0.11741824448108673
-0.19091179966926575
0.058674588799476624
0.18807931244373322
-0.05880074203014374
-0.13641756772994995
-0.09423740953207016
-0.15259045362472534
-0.10810820758342743
-0.04099284112453461
-0.138274684548378
0.02755095064640045
-0.14024515450000763
-0.1807067096233368
0.020667359232902527
0.1580410748720169
0.1861293464899063
0.18036438524723053
-0.10535231977701187
0.1374831646680832
-0.1591244339942932
-0.09592237323522568
-0.01754513382911682
0.17305608093738556
0.04007342457771301
-0.058916568756103516
-0.18155954778194427
0.14263932406902313
-0.12075487524271011
-0.10978596657514572
0.08565719425678253
-0.07172020524740219
0.09310562908649445
-0.10875692963600159
0.09734432399272919
0.030411362648010254
-0.08995378017425537
-0.11045999825000763
0.10848857462406158
-0.1430465579032898
0.0921851247549057
0.14825545251369476
-0.07030618190765381
-0.11343500018119812
-0.03480249643325806
0.0025533735752105713
0.07648564875125885
0.18627725541591644
0.10837866365909576
-0.16906873881816864
-0.11111608892679214
-0.08183952420949936
-0.1262039840221405
0.0051724910736083984
-0.09454696625471115
-0.0028170347213745117
-0.16201336681842804
-0.04649677872657776
0.11915652453899384
-0.12471185624599457
-0.046514227986335754
-0.04041358828544617
-0.07209259271621704
0.1085042804479599
0.03812268376350403
-0.07586710155010223
-0.08239199221134186
0.12089727818965912
0.12247662246227264
0.046796515583992004
-0.04003506898880005
0.03987903892993927
0.01985575258731842
-0.16791072487831116
-0.11252205818891525
-0.1544073224067688
-0.09572989493608475
0.11692117154598236
-0.05542793869972229
0.022497639060020447
-0.14240235090255737
-0.08511362224817276
0.18476013839244843
0.13605038821697235
-0.11121423542499542
0.06657399237155914
-0.17397144436836243
0.06325142085552216
-0.18149049580097198
0.18252427875995636
-0.05100241303443909
0.08506040275096893
0.023253023624420166
0.0867987722158432
0.07344625890254974
-0.10915155708789825
-0.07870633900165558
0.022431865334510803
0.09177009761333466
-0.10793134570121765
0.10565422475337982
0.08598087728023529
0.06564243137836456
0.16995222866535187
-0.04387497901916504
-0.06295770406723022
0.15294642746448517
-0.047823965549468994
0.04740653932094574
0.10257591307163239
-0.06820211559534073
0.03644636273384094
-0.1695435643196106
0.11924858391284943
0.1879853457212448
-0.017414763569831848
-0.03432750701904297
-0.12912502884864807
-0.036476582288742065
-0.10746882110834122
0.1285758763551712
0.022337064146995544
0.07393883168697357
0.019481033086776733
-0.0926252156496048
-0.0736248791217804
-0.031140819191932678
0.04113420844078064
0.1635787934064865
0.057900384068489075
0.09270207583904266
0.17871151864528656
-0.14474916458129883
0.026203349232673645
-0.15361177921295166
0.07895512878894806
-0.1216103732585907
0.11862368881702423
-0.09400395303964615
-0.033253416419029236
-0.10158088803291321
0.15555329620838165
0.009743541479110718
-0.11607634276151657
-0.02882993221282959
0.023512378334999084
0.17038099467754364
0.01990257203578949
-0.10076183825731277
0.13426439464092255
0.1872100979089737
0.17502360045909882
-0.10941871255636215
-0.05885156989097595
-0.04240173101425171
0.025164172053337097
-0.025618627667427063
-0.009122803807258606
0.03362832963466644
-0.07977292686700821
-0.1902230829000473
-0.09384404867887497
0.13917841017246246
0.09281574189662933
-0.13161157071590424
0.13829894363880157
0.011650577187538147
0.1148662120103836
0.014497935771942139
0.051327407360076904
-0.14502325654029846
0.09347806870937347
-0.14940151572227478
0.15465135872364044
-0.04172305762767792
0.08373390138149261
0.13432569801807404
0.17965953052043915
0.052083805203437805
-0.09461361169815063
-0.16765904426574707
-0.18467964231967926
0.1606484204530716
0.03661471605300903
-0.040434330701828
-0.08905209600925446
0.1651521474123001
0.08629561960697174
-0.10136792063713074
0.002894759178161621
-0.06344911456108093
0.07429920136928558
-0.11267007887363434
0.1187000721693039
-0.08276598900556564
0.1604822725057602
-0.061839401721954346
-0.06867428123950958
