0.2685846984386444
0.09451892971992493
0.09879031777381897
0.19074532389640808
0.18008914589881897
-0.1532255858182907
0.32671037316322327
-0.2884880006313324
0.07736191153526306
-0.10391291975975037
-0.2858020067214966
-0.07714018225669861
0.06947553157806396
-0.29821062088012695
0.0828990638256073
0.09430369734764099
-0.13108918070793152
0.09478533267974854
0.1537996232509613
0.292500764131546
-0.09627661108970642
0.08391663432121277
0.18031170964241028
0.13346001505851746
-0.2775840163230896
-0.04495644569396973
0.12277427315711975
-0.29747748374938965
0.29180851578712463
0.2799839675426483
-0.042196124792099
-0.21587157249450684
-0.0629415214061737
0.22720125317573547
-0.130408376455307
0.27161499857902527
0.03685358166694641
0.15180090069770813
0.06916558742523193
0.2927679717540741
0.018074989318847656
-0.12521223723888397
0.09393200278282166
-0.23896929621696472
-0.2446022927761078
0.20612171292304993
-0.201952263712883
0.2904817759990692
0.3206000030040741
0.20866993069648743
-0.13799671828746796
-0.004976421594619751
0.2554652988910675
-0.0268612802028656
0.14817658066749573
0.2018992006778717
0.1407909095287323
0.0159682035446167
-0.23296737670898438
0.22696897387504578
0.1445731222629547
-0.0013332366943359375
-0.21454450488090515
-0.3055579364299774
-0.1467025727033615
-0.24788913130760193
-0.2941921353340149
0.28972890973091125
-0.2720298767089844
-0.3066830039024353
-0.20751194655895233
0.08500853180885315
-0.19328320026397705
0.258709579706192
-0.17816659808158875
-0.23820313811302185
-0.21869270503520966
-0.16283604502677917
0.07414436340332031
-0.26105237007141113
0.1317419707775116
-0.2910640835762024
-0.2440425604581833
-0.04215645790100098
-0.1778494119644165
-0.0431368350982666
0.2125345766544342
-0.23710867762565613
0.04937824606895447
-0.11947529017925262
0.11571016907691956
0.17282208800315857
-0.07866474986076355
-0.26771408319473267
0.048243314027786255
-0.19693724811077118
0.3111783564090729
-0.11333398520946503
-0.06345784664154053
0.01598358154296875
0.05681481957435608
0.2130574882030487
-0.2695696949958801
0.1622408628463745
0.17295417189598083
-0.26647838950157166
-0.19175922870635986
-0.291788786649704
0.035606175661087036
0.013681977987289429
-0.029832929372787476
-0.11274382472038269
-0.17675702273845673
0.21599993109703064
0.2081480324268341
-0.22956745326519012
0.05011188983917236
0.31208041310310364
0.08269950747489929
-0.04680350422859192
0.30025801062583923
-0.19486264884471893
0.21725454926490784
0.12829837203025818
-0.2570948302745819
-0.23614871501922607
0.19717183709144592
-0.08235311508178711
0.2639317810535431
0.013374477624893188
-0.23334500193595886
-0.005644887685775757
0.2729255259037018
0.20662692189216614
-0.31478166580200195
0.004870295524597168
-0.13662493228912354
0.10154521465301514
-0.02851209044456482
-0.2500918507575989
0.2927064001560211
0.013471990823745728
-0.01605534553527832
0.23644128441810608
0.15045368671417236
-0.15260887145996094
-0.2485450953245163
-0.12222525477409363
0.0446222722530365
-0.07657632231712341
0.31522777676582336
0.07179692387580872
0.29187580943107605
0.2996366322040558
-0.07484593987464905
0.24781975150108337
-0.015400737524032593
0.027174800634384155
0.2361792027950287
-0.20706968009471893
0.012660175561904907
0.0936373770236969
-0.09518671035766602
-0.16595599055290222
0.2014022171497345
0.16588720679283142
0.1863173544406891
-0.05516326427459717
-0.1723296344280243
0.053793907165527344
0.14736679196357727
0.18546834588050842
0.10783049464225769
0.1996939480304718
0.17336896061897278
-0.1905149221420288
0.3173147737979889
0.3213943541049957
0.1833319365978241
-0.07481956481933594
-0.1018836498260498
0.13274022936820984
-0.2753902077674866
-0.06780621409416199
0.006760925054550171
0.09032213687896729
-0.09873390197753906
-0.2620840072631836
-0.021885395050048828
-0.09633025527000427
-0.1582883596420288
-0.19349424540996552
0.17475590109825134
0.13651713728904724
-0.012978941202163696
0.17231419682502747
-0.022974282503128052
0.30599287152290344
-0.06418439745903015
-0.1492164134979248
-0.19212281703948975
-0.10474841296672821
0.022148698568344116
0.09094417095184326
-0.29796504974365234
0.294493705034256
0.26220908761024475
-0.12797805666923523
-0.19916006922721863
-0.04367443919181824
-0.13587670028209686
-0.1476360261440277
0.16994628310203552
0.14374050498008728
0.28703513741493225
0.027158141136169434
0.28454986214637756
-0.02386966347694397
-0.27538034319877625
0.0395263135433197
-0.3015960156917572
0.03904721140861511
-0.16509878635406494
0.2529633343219757
0.13579723238945007
-0.2720572352409363
-0.1590648591518402
0.29970094561576843
-0.14872007071971893
-0.05135318636894226
-0.1190987080335617
0.22977927327156067
0.26851072907447815
-0.2646057605743408
-0.01911643147468567
0.10783252120018005
0.012859076261520386
-0.20173653960227966
0.1679408848285675
0.1865384876728058
0.3309008777141571
-0.03379321098327637
-0.06300640106201172
-0.1992446631193161
0.28124478459358215
0.0032492876052856445
-0.20699211955070496
0.3065251410007477
0.1468573808670044
0.3305145800113678
-0.31555092334747314
0.25415852665901184
0.20106902718544006
0.3282804787158966
-0.0692954957485199
-0.18112051486968994
0.07115516066551208
-0.2139265537261963
0.17404159903526306
0.2717267572879791
-0.22946099936962128
0.029998332262039185
0.01861894130706787
0.31431952118873596
0.30062511563301086
-0.16376733779907227
-0.0016108453273773193
0.1240992546081543
0.05830228328704834
-0.3148972988128662
0.05462422966957092
0.2928036153316498
0.08732810616493225
0.2924465239048004
0.21516838669776917
0.07418492436408997
-0.326667845249176
0.33062025904655457
0.14221441745758057
-0.21088263392448425
0.16102996468544006
-0.2059727907180786
-0.3286980390548706
-0.18602804839611053
-0.13104836642742157
-0.22007998824119568
-0.13165490329265594
0.13486286997795105
