0.022486180067062378
-0.08162184059619904
-0.14315155148506165
0.15867622196674347
0.13181160390377045
0.1294531673192978
-0.012141361832618713
-0.010747671127319336
-0.08928772062063217
0.15650834143161774
0.0663694441318512
0.15243344008922577
0.13436903059482574
-0.020182877779006958
-0.056346312165260315
0.13437171280384064
0.012321054935455322
0.05328093469142914
0.08867840468883514
-0.15416981279850006
-0.09120246767997742
-0.03336234390735626
0.08884303271770477
-0.15222162008285522
-0.05419127643108368
0.12185381352901459
-0.009815260767936707
0.16468091309070587
0.04261942207813263
-0.0918884128332138
-0.005783006548881531
-0.06661070883274078
0.00965563952922821
0.1458544284105301
0.01102873682975769
0.08805082738399506
-0.11940121650695801
0.037410348653793335
-0.047693148255348206
0.02222059667110443
0.14121650159358978
0.012682601809501648
0.09896780550479889
-0.1144852489233017
0.035026997327804565
0.17544393241405487
0.09164924919605255
-0.014459341764450073
-0.025626912713050842
0.020427122712135315
0.027106359601020813
0.03607995808124542
-0.09847594052553177
0.011964097619056702
-0.11404003202915192
-0.15182560682296753
0.1602194756269455
-0.1081458181142807
0.11254362761974335
0.08710221946239471
0.0437505841255188
0.10767827928066254
0.03429149091243744
0.11672134697437286
0.10825566947460175
0.14587996900081635
-0.17668123543262482
0.056787148118019104
-0.05642790347337723
0.04868327081203461
0.03446410596370697
0.09702606499195099
0.02400827407836914
0.12198887765407562
-0.043666690587997437
0.16185124218463898
-0.07078904658555984
0.08131115138530731
0.13777969777584076
-0.15814395248889923
0.0040683746337890625
-0.09916581958532333
0.16892291605472565
0.14772216975688934
0.06846615672111511
-0.09023869782686234
0.0437019020318985
0.05035191774368286
0.10849426686763763
0.17491360008716583
-0.0799756646156311
-0.023707836866378784
-0.14999015629291534
0.13567353785037994
0.16250886023044586
0.1489427536725998
-0.039284780621528625
0.1021742969751358
-0.02731148898601532
0.038559481501579285
0.1662575751543045
0.0019082576036453247
-0.03818124532699585
0.07245698571205139
0.1703488975763321
-0.10460575670003891
-0.07778911292552948
0.16589801013469696
0.07136894762516022
-0.049334198236465454
-0.02481219172477722
0.14113835990428925
-0.11212228983640671
-0.00322568416595459
-0.04630953073501587
-0.07682504504919052
-0.08784517645835876
0.10928167402744293
-0.01387082040309906
0.08736644685268402
0.02509187161922455
-0.1268821805715561
-0.1125204935669899
-0.12379296123981476
-0.010528162121772766
0.14305131137371063
-0.06216476857662201
-0.1274239718914032
-0.15253674983978271
0.03462187945842743
0.010564744472503662
-0.07546216249465942
0.12521617114543915
-0.11756062507629395
-0.1294378638267517
-0.11831895262002945
-0.1431114375591278
0.04635705053806305
-0.06251515448093414
-0.05555656552314758
-0.01810474693775177
-0.00711415708065033
0.07307131588459015
0.12972383201122284
0.008531555533409119
0.1366388350725174
-0.048137813806533813
-0.09962891042232513
0.0069487690925598145
0.0715814083814621
0.08860684931278229
-0.11609568446874619
0.10249198973178864
0.1200094074010849
-0.10080042481422424
0.0024062693119049072
0.041619837284088135
0.15335308015346527
0.039464130997657776
-0.0177278071641922
-0.03384861350059509
0.16071732342243195
-0.11191893368959427
-0.05684652924537659
-0.1522970050573349
-0.04120528697967529
-0.021610692143440247
-0.12699320912361145
0.15318970382213593
0.04796367883682251
-0.13926813006401062
-0.029034331440925598
0.08955006301403046
-0.17505648732185364
0.0533987432718277
-0.17191575467586517
0.048778384923934937
-0.09612073004245758
-0.08808143436908722
0.10555247962474823
-0.04506996273994446
-0.14559859037399292
0.07204440236091614
0.023025453090667725
-0.13256344199180603
-0.02209661900997162
0.11124838888645172
0.1406569629907608
-0.08624136447906494
-0.15224887430667877
-0.09549276530742645
-0.04377029836177826
0.1218806654214859
-0.16343006491661072
0.03935106098651886
0.00025081634521484375
0.049211546778678894
0.06378525495529175
-0.04871557652950287
0.03133523464202881
-0.12368418276309967
-0.061171263456344604
-0.1281823068857193
-0.07692505419254303
0.04149392247200012
-0.058746762573719025
-0.15513108670711517
-0.1622980535030365
-0.03236013650894165
-0.047644004225730896
-0.11954361200332642
-0.05043327808380127
0.17069442570209503
-0.14359740912914276
0.0868726521730423
-0.03148014843463898
-0.09765228629112244
-0.12642033398151398
0.14232288300991058
-0.04622901976108551
0.15766538679599762
-0.17020098865032196
-0.12487295269966125
-0.1183917373418808
-0.03898496925830841
0.16939882934093475
0.021206378936767578
-0.17460733652114868
0.0674864798784256
-0.08931530267000198
0.06511159241199493
-0.07247163355350494
-0.08455462753772736
0.15697325766086578
-0.13980108499526978
-0.1526200771331787
-0.09865394979715347
-0.03291402757167816
-0.08594802021980286
0.011469617486000061
-0.12499547004699707
0.09528382122516632
0.08989571034908295
-0.09567943215370178
-0.0808088481426239
-0.13701018691062927
-0.021594971418380737
-0.10333365947008133
-0.12847423553466797
-0.09812239557504654
-0.1659136414527893
0.09964649379253387
0.09136717021465302
0.07939429581165314
0.07021677494049072
-0.12052352726459503
-0.06823737174272537
0.06750401854515076
-0.10830584913492203
0.07844199240207672
0.10973785817623138
-0.03921440243721008
-0.09168107062578201
0.0023697763681411743
0.10492490231990814
-0.04339835047721863
-0.11343402415513992
0.03412185609340668
-0.07229701429605484
0.17206157743930817
0.09324143826961517
0.058309152722358704
-0.07593679428100586
-0.12558017671108246
-0.10852368921041489
-0.10303077101707458
0.059054747223854065
-0.1423172950744629
-0.04585409164428711
-0.12640279531478882
0.06801648437976837
-0.12008112668991089
0.07302828133106232
-0.11818701028823853
0.11183647811412811
0.07953117787837982
-0.16824054718017578
-0.165188267827034
-0.0002990514039993286
0.00623050332069397
-0.14285531640052795
-0.026352807879447937
0.07121828198432922
-0.1537635177373886
-0.09719358384609222
-0.16760604083538055
-0.16882093250751495
0.07491596043109894
0.14235927164554596
-0.13810822367668152
-0.08825933188199997
0.08851046860218048
-0.09068138897418976
0.14677833020687103
-0.16527685523033142
-0.13779620826244354
-0.07614131271839142
0.12370060384273529
0.05748562514781952
0.12645511329174042
0.1299312561750412
0.12183026969432831
0.050261422991752625
0.13170410692691803
-0.14885659515857697
0.1231909841299057
0.10722954571247101
-0.003203094005584717
0.08735521137714386
-0.1667996346950531
-0.08280587196350098
0.09585978090763092
-0.09347555786371231
-0.036303162574768066
-0.13064146041870117
0.12406934797763824
0.05974949896335602
-0.045802026987075806
-0.11842077970504761
0.008928939700126648
-0.12696266174316406
0.0360495001077652
-0.06753360480070114
-0.17424693703651428
0.14637421071529388
-0.12473677843809128
-0.00432923436164856
0.07200799882411957
-0.11000622063875198
0.08923132717609406
0.1333397477865219
0.1458175927400589
0.05857613682746887
-0.02078990638256073
-0.06333400309085846
0.12315426766872406
-0.11279130727052689
0.010470688343048096
-0.025036364793777466
0.09521211683750153
-0.13620561361312866
0.04317444562911987
-0.037453413009643555
-0.17216525971889496
-0.16789036989212036
0.10108955204486847
0.06878216564655304
0.11602284014225006
0.16674987971782684
-0.13069094717502594
-0.1243748664855957
-0.12897999584674835
0.02190472185611725
0.13915883004665375
0.1734989434480667
-0.14100193977355957
-0.03853029012680054
-0.05985777825117111
0.16335763037204742
-0.14784161746501923
0.045421212911605835
0.1360614150762558
-0.09309353679418564
-0.06478244811296463
0.014751225709915161
0.0992542952299118
0.03359559178352356
0.039928749203681946
-0.09312769770622253
-0.16084526479244232
0.036589011549949646
-0.16182425618171692
-0.17021329700946808
0.17490650713443756
-0.05641467124223709
-0.1661580502986908
-0.09943771362304688
0.166313037276268
0.040565624833106995
0.11379925906658173
0.12423552572727203
-0.14496158063411713
0.0053683072328567505
0.09529151022434235
-0.08034829050302505
0.16738654673099518
0.15224112570285797
0.03310804069042206
-0.08697821944952011
-0.027887850999832153
-0.07940533757209778
0.13838927447795868
-0.05555133521556854
-0.09376959502696991
-0.14660844206809998
0.06100921332836151
0.11398498713970184
-0.08307401090860367
-0.015032783150672913
0.05601711571216583
0.14949087798595428
0.03054298460483551
-0.08113938570022583
-0.02827596664428711
-0.08152639865875244
0.14897941052913666
-0.16618512570858002
-0.11124873161315918
0.11072666943073273
0.0655941516160965
-0.17098453640937805
0.16074557602405548
0.08645425736904144
0.13926877081394196
0.12363745272159576
-0.09417270869016647
0.03272546827793121
0.05975377559661865
0.14886479079723358
0.04848082363605499
0.14807526767253876
-0.10142479091882706
-0.07198837399482727
0.13146181404590607
0.14547525346279144
0.0016683787107467651
-0.028740033507347107
-0.00013449788093566895
-0.08605068922042847
0.17122884094715118
-0.009808242321014404
0.03631600737571716
-0.005467414855957031
0.1265907734632492
0.03811758756637573
-0.09320276230573654
0.10368047654628754
0.05509580671787262
0.16211356222629547
-0.12983037531375885
-0.07396845519542694
0.17293401062488556
0.061187148094177246
0.044420331716537476
-0.13465885818004608
0.14426858723163605
-0.13952970504760742
0.14561046659946442
-0.051756203174591064
-0.12382546067237854
-0.1119999811053276
-0.09019667655229568
2.130866050720215e-06
0.10958124697208405
-0.14596612751483917
0.15091265738010406
-0.1612996906042099
-0.17464999854564667
-0.0338483601808548
-0.022779017686843872
0.12308810651302338
-0.12863565981388092
-0.053300946950912476
-0.12589779496192932
0.09895096719264984
0.000957787036895752
-0.10793506354093552
0.00025779008865356445
0.12445364892482758
-0.14597727358341217
0.019879817962646484
0.12992732226848602
0.08259181678295135
-0.15718938410282135
-0.054515011608600616
-0.0707244724035263
-0.1399657428264618
-0.01303747296333313
-0.05355214327573776
0.0794602483510971
0.00042703747749328613
-0.16180375218391418
-0.004728540778160095
-0.1180279478430748
0.021411478519439697
0.007341891527175903
-0.02418769896030426
0.0031117498874664307
0.004488557577133179
0.12237890064716339
-0.14848719537258148
0.149771586060524
0.08535663783550262
-0.10167989879846573
0.09716834127902985
0.04558160901069641
0.13475362956523895
-0.019168004393577576
0.11916200816631317
-0.020434752106666565
-0.012251123785972595
-0.04523885250091553
-0.07345379889011383
-0.12358427047729492
0.08621902763843536
-0.07457073032855988
-0.029734119772911072
0.1399497240781784
-0.014034777879714966
-0.07804586738348007
-0.12266089767217636
0.15518830716609955
0.15728501975536346
0.05795326828956604
0.03415024280548096
-0.13292384147644043
-0.08111105859279633
-0.12897036969661713
-0.05503290891647339
0.013643965125083923
-0.11594440042972565
-0.1200697124004364
0.032613709568977356
0.05139172077178955
0.021726682782173157
-0.023209258913993835
0.13710467517375946
-0.11236117780208588
0.05815763771533966
0.14201588928699493
-0.16499000787734985
0.15605710446834564
0.09563268721103668
-0.06041784584522247
0.016928240656852722
0.04751117527484894
-0.032004863023757935
-0.060703344643116
0.05988512933254242
-0.059504203498363495
0.12228207290172577
0.10213284194469452
-0.05078127980232239
-0.08410833030939102
-0.06698417663574219
0.11295120418071747
-0.06889547407627106
0.06667912006378174
-0.15426239371299744
-0.17447078227996826
0.03705264627933502
0.07582591474056244
0.1689252108335495
0.1551939994096756
0.07032342255115509
-0.039756178855895996
0.12487693130970001
0.027716651558876038
0.16788573563098907
-0.1293615996837616
0.05061820149421692
0.01623445749282837
0.030820846557617188
-0.13293690979480743
0.02706320583820343
0.1584521383047104
-0.11779129505157471
0.0840836614370346
0.08467818796634674
0.09642313420772552
0.08566819131374359
0.04610845446586609
0.16277234256267548
-0.0597844198346138
0.0811164528131485
-0.061823442578315735
0.17494000494480133
0.016530632972717285
0.040342167019844055
0.10945756733417511
-0.12265989184379578
-0.11553426831960678
0.051123932003974915
0.024407804012298584
0.16003374755382538
-0.039279550313949585
0.06374089419841766
0.16976387798786163
-0.02363225817680359
-0.09285085648298264
-0.0014569461345672607
-0.12589149177074432
-0.07627810537815094
-0.03095528483390808
0.16872112452983856
-0.08832767605781555
0.15477044880390167
0.14302055537700653
-0.1331062763929367
-0.054178446531295776
0.14440028369426727
0.07280035316944122
0.17367242276668549
-0.0958927795290947
-0.1641284078359604
0.05779474973678589
0.11006014049053192
-0.17523634433746338
-0.10453073680400848
0.12160946428775787
0.15293030440807343
0.0389433354139328
0.16670916974544525
0.058915331959724426
-0.10066819190979004
0.10219214856624603
-0.15558463335037231
-0.08770544081926346
0.059967443346977234
0.06684580445289612
-0.04953792691230774
0.053811684250831604
-0.11108414828777313
-0.06791174411773682
-0.03874978423118591
-0.09377092123031616
-0.03999042510986328
-0.10503008961677551
0.0749579519033432
0.11196137964725494
-0.01749737560749054
0.016938060522079468
-0.1738046258687973
-0.08476384729146957
0.03624698519706726
-0.09446440637111664
0.11664868891239166
-0.10801486670970917
0.09551943838596344
0.04921123385429382
-0.1545882374048233
0.1486123651266098
-0.12633012235164642
0.06531062722206116
0.11751644313335419
-0.03834301233291626
0.138663187623024
0.07444696128368378
-0.06489744037389755
-0.08808164298534393
0.04557481408119202
0.12283773720264435
-0.07894150912761688
-0.03443543612957001
0.1625821739435196
-0.09826436638832092
0.0003300905227661133
0.12955613434314728
0.011082351207733154
-0.10487429797649384
-0.1382238119840622
0.059041619300842285
0.17354010045528412
-0.002184569835662842
-0.05749659985303879
0.00017918646335601807
0.1002836674451828
0.12880904972553253
-0.16360057890415192
0.1027996689081192
-0.0010883361101150513
0.1443464308977127
0.16923515498638153
0.15379594266414642
-0.06380337476730347
0.046140700578689575
-0.17215688526630402
-0.009424373507499695
-0.17522196471691132
-0.05257762223482132
-0.06876211613416672
-0.005537837743759155
0.14630158245563507
0.12243889272212982
-0.09670545905828476
-0.08854153007268906
-0.15862937271595
0.061049684882164
0.11367760598659515
0.12116678059101105
-0.1302964985370636
0.09234048426151276
0.07095733284950256
0.10960154235363007
0.05212825536727905
-0.14975734055042267
-0.17010389268398285
0.01757095754146576
0.12473417818546295
-0.1205793023109436
0.15578459203243256
-0.08273310214281082
-0.12176713347434998
-0.11390990763902664
-0.15931867063045502
0.1460186094045639
-0.09734351933002472
-0.12172755599021912
0.042822644114494324
-0.12927162647247314
-0.08024907112121582
-0.030893176794052124
-0.146238312125206
0.014691457152366638
-0.05364321917295456
0.05200386047363281
0.14443065226078033
0.003276154398918152
-0.0591215118765831
0.14474119246006012
-0.11075137555599213
0.04038095474243164
-0.09354444593191147
-0.16719229519367218
-0.06424935162067413
0.10218457877635956
-0.03773188591003418
-0.1487354040145874
0.09590940177440643
-0.17638306319713593
-0.05516462028026581
0.12133626639842987
-0.11160875111818314
0.008087113499641418
-0.08946802467107773
0.13789884746074677
-0.02593374252319336
0.028422757983207703
-0.13266649842262268
0.07317490875720978
0.07347597181797028
-0.09424977004528046
-0.11213289201259613
-0.07355855405330658
-0.0706978589296341
-0.05083194375038147
0.10276965796947479
0.06262437999248505
-0.1766379028558731
-0.15666870772838593
0.021998658776283264
0.048837170004844666
0.03377915918827057
0.09558828175067902
-0.1526383012533188
-0.10741374641656876
-0.11953862011432648
-0.04402203857898712
-0.11515700817108154
-0.06027036905288696
0.16738857328891754
0.12441901862621307
0.009002059698104858
0.07251808047294617
-0.12091308832168579
-0.07536229491233826
0.1460200399160385
-0.0006106793880462646
0.0015549808740615845
0.15001855790615082
0.1027035266160965
-0.04683889448642731
0.15363310277462006
-0.07697241008281708
-0.06085406243801117
-0.05611249804496765
-0.05644503980875015
0.08842204511165619
-0.1485394835472107
-0.0038949400186538696
-0.17251335084438324
0.07939435541629791
0.1630525141954422
0.12904749810695648
-0.1546977460384369
0.12062968313694
0.04449114203453064
-0.10528687387704849
-0.07455075532197952
0.0007848590612411499
0.07773129642009735
-0.16727939248085022
0.15762628614902496
0.09933064877986908
-0.05709557235240936
-0.0764128640294075
0.09701554477214813
-0.09387468546628952
-0.004600837826728821
-0.1741606593132019
-0.042989760637283325
0.08803670108318329
0.06433548033237457
0.02402617037296295
-0.030872002243995667
-0.061082713305950165
0.1733822077512741
-0.05539758503437042
0.008999466896057129
0.012856215238571167
-0.040383949875831604
-0.16347143054008484
-0.060125745832920074
-0.08234735578298569
0.16631056368350983
0.13809572160243988
-0.04891224205493927
-0.004599735140800476
0.1092967838048935
0.04221411049365997
0.05922327935695648
0.11907665431499481
0.11741156876087189
-0.16919636726379395
-0.05532146990299225
-0.07583986222743988
-0.14499257504940033
0.11861489713191986
-0.021599143743515015
-0.1529199331998825
-0.014232933521270752
0.037851765751838684
0.1467759758234024
-0.14993590116500854
0.12476484477519989
0.16644884645938873
0.06639635562896729
-0.012323901057243347
-0.16309936344623566
-0.017185434699058533
-0.076491579413414
0.09531287848949432
0.027424201369285583
-0.09614191204309464
0.14972002804279327
0.1604919284582138
-0.06669388711452484
-0.1348322033882141
-0.08467575907707214
0.10044188797473907
-0.033107757568359375
0.12350498139858246
0.039861857891082764
0.15027643740177155
0.1451539248228073
-0.025834739208221436
-0.04756651818752289
0.015126720070838928
0.1293330043554306
-0.048563554883003235
0.033107683062553406
-0.0633857399225235
-0.01255790889263153
-0.1144820898771286
0.16538457572460175
-0.010706081986427307
-0.17015647888183594
0.01583951711654663
0.08684097230434418
0.06295967102050781
-0.007020190358161926
0.09173251688480377
-0.10245618224143982
-0.07594090700149536
0.11633194983005524
-0.014031872153282166
0.06354451179504395
-0.10588660091161728
-0.06330359727144241
-0.10201705992221832
-0.0075909048318862915
0.04921907186508179
-0.1346328854560852
-0.10017111152410507
0.10073165595531464
-0.06806977093219757
-0.04014153778553009
-0.018881753087043762
-0.02134186029434204
-0.03251388669013977
0.16630299389362335
-0.14349539577960968
-0.015010669827461243
-0.08363807946443558
0.12888173758983612
0.17435114085674286
0.009917423129081726
0.10091309249401093
-0.05483349412679672
-0.10808464139699936
-0.025637522339820862
-0.1645105630159378
-0.05717403441667557
-0.07603683322668076
0.05194348096847534
0.08594189584255219
0.08597464859485626
-0.14215189218521118
0.14015020430088043
0.005804911255836487
0.02502329647541046
-0.10821706801652908
-0.004866316914558411
0.1483447402715683
0.0879298597574234
0.050428494811058044
-0.0775952935218811
-0.17489366233348846
0.1264437884092331
0.14511950314044952
-0.06852291524410248
-0.12606599926948547
-0.07830214500427246
0.05195356905460358
0.03947465121746063
0.1307636946439743
0.042574360966682434
0.16024182736873627
-0.16366487741470337
-0.037873730063438416
-0.1495993435382843
-0.07622632384300232
-0.09986851364374161
0.10988782346248627
-0.15534278750419617
0.1674738973379135
0.013327255845069885
0.14923934638500214
0.09433160722255707
0.08141948282718658
-0.08899608254432678
-0.04474863409996033
0.0736103504896164
0.15633849799633026
-0.06218908727169037
-0.057980068027973175
0.16774962842464447
-0.059576697647571564
0.006006598472595215
-0.08569760620594025
-0.08665859699249268
-0.04800930619239807
-0.003070160746574402
-0.13275085389614105
-0.07786459475755692
-0.004290193319320679
0.16020528972148895
-0.1263819932937622
0.13214565813541412
0.01614820957183838
0.06419546902179718
-0.11338914185762405
-0.10001396387815475
-0.12279975414276123
0.13483600318431854
0.16420693695545197
0.1758645623922348
0.06774890422821045
-0.12285597622394562
-0.06446356326341629
-0.16081024706363678
-0.0711142048239708
-0.04915390908718109
0.046432554721832275
-0.06242331862449646
-0.09332726150751114
0.08725516498088837
-0.17298546433448792
-0.003532499074935913
-0.1155734434723854
-0.07698608189821243
-0.110140860080719
-0.09122037887573242
0.032334983348846436
0.05568188428878784
-0.039880529046058655
-0.147279754281044
-0.05467835068702698
-0.11077690124511719
0.08319668471813202
-0.10731638967990875
-0.10269802063703537
0.046600133180618286
-0.13694369792938232
0.050011128187179565
-0.046575188636779785
0.016579031944274902
0.05384184420108795
0.14911489188671112
-0.016714245080947876
-0.11486466228961945
0.07807515561580658
-0.16608211398124695
-0.010441780090332031
0.05551113188266754
-0.09566541761159897
-0.16158820688724518
0.128740593791008
0.07833506166934967
-0.13303585350513458
0.0744539350271225
0.11701120436191559
0.1649600714445114
-0.15389025211334229
-0.04510791599750519
-0.10885609686374664
-0.09908965975046158
-0.05810994654893875
-0.05736459791660309
-0.15774449706077576
0.08091036975383759
0.07135042548179626
-0.04372680187225342
-0.0966479703783989
-0.033028826117515564
0.027542099356651306
0.09952186048030853
-0.057954467833042145
0.036815375089645386
0.16467706859111786
0.05108729004859924
0.1742067188024521
0.10828123986721039
-0.025233641266822815
0.11438386142253876
0.12913362681865692
-0.14284974336624146
-0.060047879815101624
0.06729580461978912
-0.08007199317216873
-0.011477917432785034
0.1619488149881363
-0.020908191800117493
-0.15065738558769226
0.14350567758083344
0.13772885501384735
-0.0524827316403389
0.04195478558540344
0.13074393570423126
-0.015611544251441956
0.07243384420871735
0.13341809809207916
0.1126723438501358
-0.024453163146972656
-0.034148216247558594
-0.004318937659263611
-0.09982025623321533
0.019467651844024658
0.16113798320293427
0.11191041767597198
-0.008396416902542114
0.04049593210220337
-0.09015396237373352
0.12221501767635345
-0.05745871365070343
-0.05845137685537338
-0.11784922331571579
0.12703166902065277
0.16066394746303558
0.04772515594959259
-0.11447758227586746
-0.0587538406252861
-0.151346817612648
0.153622105717659
-0.062141671776771545
-0.17105981707572937
0.022388890385627747
0.085014209151268
-0.13116811215877533
-0.07083304971456528
-0.14778244495391846
-0.02464170753955841
-0.15392932295799255
-0.015779316425323486
0.13282613456249237
0.11457328498363495
-0.1225728765130043
0.11486281454563141
-0.08836261183023453
0.06573353707790375
0.13662128150463104
-0.04043962061405182
-0.04946430027484894
-0.16309641301631927
-0.059296444058418274
-0.1321989893913269
-0.11659805476665497
-0.12567076086997986
-0.000723034143447876
0.06110644340515137
0.07589666545391083
0.13337863981723785
-0.09492003172636032
-0.0020956695079803467
-0.029818519949913025
-0.11684254556894302
0.15468494594097137
0.08471433818340302
0.09660716354846954
-0.11877493560314178
-0.14710143208503723
0.058012500405311584
0.011812269687652588
-0.0031350702047348022
-0.10831143707036972
0.10695795714855194
-0.11886709183454514
0.14424096047878265
-0.10509639233350754
-0.007856890559196472
0.031158581376075745
0.1557920128107071
-0.1189408078789711
0.13085295259952545
-0.021486088633537292
-0.058899879455566406
-0.07910244911909103
-0.14206859469413757
0.13036127388477325
0.11127312481403351
0.08386413753032684
0.17542026937007904
-0.031194761395454407
0.012195974588394165
-0.040556058287620544
0.13440077006816864
-0.09763608127832413
-0.12297166883945465
0.07882483303546906
-0.12598568201065063
-0.04676686227321625
-0.058300890028476715
0.05798414349555969
0.11853127181529999
0.15284748375415802
0.14048583805561066
0.14593543112277985
-0.09740450233221054
0.14993132650852203
-0.00058022141456604
-0.174105703830719
-0.05495797097682953
0.1325807124376297
0.03127138316631317
-0.05270518362522125
0.0849228948354721
0.12452347576618195
-0.02192506194114685
0.10736586153507233
0.1643764227628708
0.14919687807559967
0.07691098749637604
0.08535449206829071
0.10696302354335785
-0.15543945133686066
-0.12646856904029846
0.05866554379463196
0.021009936928749084
0.0418095737695694
-0.15599749982357025
-0.11710919439792633
-0.09304627031087875
0.06639036536216736
0.14216746389865875
-0.1703895628452301
-0.03987157344818115
0.12275557219982147
-0.035036489367485046
0.14969505369663239
0.03616522252559662
0.07263150811195374
0.09666378796100616
0.08019821345806122
0.06395070254802704
-0.10215919464826584
0.11578579246997833
0.07992614805698395
0.08400757610797882
0.019747480750083923
-0.12518151104450226
-0.0905866026878357
-0.1207316666841507
0.05644470453262329
-0.07538852840662003
-0.14820171892642975
0.07310698926448822
-0.10455098748207092
0.11197887361049652
-0.012709572911262512
0.10318593680858612
-0.07618668675422668
0.01572588086128235
0.07140298187732697
-0.12938544154167175
-0.03942707180976868
0.10141153633594513
0.03804360330104828
-0.08246085792779922
-0.029051780700683594
0.07661803066730499
-0.08850479871034622
-0.16635900735855103
-0.16573204100131989
0.03899864852428436
0.07278136909008026
0.17012040317058563
0.020078927278518677
0.16862322390079498
0.1479382961988449
-0.11317800730466843
-0.09723347425460815
0.0480182021856308
-0.08337179571390152
-0.05062265694141388
0.15275143086910248
-0.0317983478307724
-0.06404232233762741
-0.08783744275569916
-0.018217429518699646
0.12761442363262177
-0.09678176790475845
-0.14156925678253174
0.14180313050746918
0.13673625886440277
-0.13893461227416992
0.010616958141326904
-0.14578349888324738
-0.08747049421072006
-0.12494036555290222
0.11072005331516266
-0.05286361277103424
0.054261013865470886
-0.08851588517427444
0.03847728669643402
0.002735033631324768
-0.1664971560239792
-0.11617395281791687
0.086655393242836
-0.054575808346271515
-0.005950033664703369
-0.15303996205329895
0.09846122562885284
-0.12597942352294922
0.06105731427669525
0.10303492844104767
-0.0794433131814003
-0.11930423974990845
0.06997577846050262
0.009502828121185303
-0.07387012988328934
0.14190907776355743
0.011459961533546448
0.15405581891536713
-0.12221167981624603
-0.10896804183721542
0.02864105999469757
0.06696057319641113
0.16295520961284637
0.0924079567193985
-0.03461350500583649
0.008254244923591614
0.09225790202617645
-0.12399975955486298
0.0625731498003006
0.10314352810382843
-0.17633479833602905
-0.10575607419013977
0.077053502202034
0.0387507826089859
0.04120534658432007
0.11197562515735626
-0.04140990972518921
0.04207046329975128
-0.08839713037014008
-0.011439412832260132
0.11910341680049896
0.166089728474617
0.08491049706935883
-0.1328045278787613
0.10474146902561188
-0.0498647540807724
0.08092240989208221
0.060863375663757324
0.055836379528045654
-0.12973162531852722
0.08795012533664703
-0.014993727207183838
0.12887851893901825
-0.16078919172286987
-0.09152137488126755
0.034369587898254395
-0.00024284422397613525
-0.12919124960899353
0.08218236267566681
-0.08819413185119629
-0.17305442690849304
0.106870636343956
0.04716302454471588
-0.0014850050210952759
-0.15499348938465118
-0.1598598062992096
0.1168360561132431
0.131348118185997
0.1697385162115097
0.12795616686344147
-0.1634807288646698
0.06856846809387207
0.06371378898620605
0.09652645885944366
-0.007420241832733154
-0.14817753434181213
-0.08032257854938507
0.08635331690311432
0.08138863742351532
0.1434793919324875
0.11466826498508453
0.04888153076171875
0.044864997267723083
-0.03861987590789795
-0.07526843249797821
0.003576710820198059
-0.010900065302848816
-0.09457731246948242
-0.12282156199216843
0.06450395286083221
0.07628624141216278
0.03344695270061493
0.12681205570697784
0.06269709765911102
0.17671890556812286
0.07925333082675934
0.09099818766117096
0.07168424129486084
0.12309969961643219
0.06611648201942444
0.05014251172542572
-0.13345423340797424
-0.053085409104824066
0.046616390347480774
0.08073176443576813
0.05410289764404297
0.05994810163974762
0.02147592604160309
0.1714349240064621
-0.13045036792755127
0.0896858423948288
0.17476020753383636
0.08428509533405304
-0.1355183869600296
-0.05834362655878067
-0.011920750141143799
0.15361528098583221
-0.06083157658576965
0.17568837106227875
-0.011629268527030945
0.05722890794277191
0.14320005476474762
-0.12041343748569489
0.045647263526916504
0.12752772867679596
-0.10388807952404022
0.03414712846279144
0.13140572607517242
-0.03832489252090454
-0.05284057557582855
-0.1422530710697174
0.006104111671447754
0.14657361805438995
-0.06671369820833206
0.16814570128917694
0.05611738562583923
-0.05969681590795517
-0.06790780276060104
-0.06130453199148178
0.14369027316570282
0.020594850182533264
0.132952019572258
0.13619603216648102
-0.12676124274730682
-0.13275405764579773
-0.1059393659234047
0.16466061770915985
0.14128707349300385
-0.15755024552345276
-0.07987333089113235
-0.14990828931331635
-0.11508949100971222
-0.17285341024398804
-0.0156441330909729
-0.042273104190826416
-0.05586449056863785
0.01869240403175354
0.07183137536048889
-0.025349661707878113
0.03864181041717529
-0.1576683223247528
-0.15634405612945557
-0.16150406002998352
-0.11524470150470734
-0.039655208587646484
0.009163588285446167
-0.055706582963466644
-0.10107671469449997
-0.12860412895679474
-0.14440761506557465
-0.076454296708107
0.061031773686409
0.05686753988265991
0.0820343941450119
-0.04613231122493744
-0.0909445509314537
0.10361723601818085
0.16829968988895416
-0.14059145748615265
0.030995532870292664
0.09123928844928741
0.024503648281097412
-0.08272633701562881
-0.06387162953615189
-0.15441685914993286
0.14819730818271637
0.03984980285167694
-0.029537439346313477
-0.03305083513259888
0.0426553338766098
-0.06233721226453781
-0.1421012580394745
-0.06362848728895187
0.030857250094413757
0.1313406080007553
0.12030188739299774
0.10052971541881561
0.10402737557888031
0.08877022564411163
0.016426697373390198
0.1554030328989029
-0.03926347196102142
0.1189642995595932
0.1134621649980545
0.1452527791261673
-0.09484197944402695
-0.0034603625535964966
0.032679617404937744
0.06612928211688995
-0.08474279195070267
0.08988143503665924
0.08921955525875092
-0.03927972912788391
0.11787040531635284
0.16059865057468414
0.11664195358753204
0.15809102356433868
0.07387284934520721
-0.1439184844493866
0.1394943743944168
0.14682646095752716
-0.13166511058807373
-0.054384708404541016
0.09772862493991852
0.08406548202037811
-0.022971615195274353
0.09928490221500397
-0.03681105375289917
0.13981415331363678
-0.04268820583820343
0.06786753237247467
0.1552705615758896
0.03559665381908417
0.053395792841911316
0.13802172243595123
-0.018537044525146484
0.11252187192440033
-0.004723414778709412
-0.12667736411094666
-0.15233923494815826
-0.10580719262361526
0.17135076224803925
-0.14908646047115326
0.06757567822933197
0.045709893107414246
-0.008392125368118286
0.017078131437301636
-0.06091096252202988
0.03434070944786072
0.09548963606357574
0.09381185472011566
-0.07030606269836426
0.05062757432460785
0.10053278505802155
-0.0873173326253891
0.05445362627506256
0.03290855884552002
-0.008787348866462708
-0.01420167088508606
-0.09552011638879776
0.09330357611179352
-0.05756121128797531
-0.07090219110250473
-0.1498139202594757
-0.03526178002357483
-0.05272652953863144
0.03255432844161987
-0.08544038236141205
0.05583770573139191
0.07900552451610565
0.02795913815498352
-0.1756756752729416
-0.10995200276374817
0.005551189184188843
-0.011813357472419739
-0.029372915625572205
0.010177850723266602
-0.10647754371166229
-0.013475954532623291
0.15589915215969086
-0.12096865475177765
0.08194093406200409
-0.07472770661115646
-0.034070029854774475
0.15290386974811554
0.003488093614578247
0.09600035846233368
-0.04905983805656433
0.1364281326532364
0.07694964110851288
0.15825255215168
0.15904627740383148
-0.08754334598779678
0.1190948337316513
-0.08235753327608109
-0.08152209967374802
0.05524866282939911
0.11341039836406708
0.10715685784816742
-0.17548103630542755
0.06497353315353394
0.04186992347240448
-0.0919305756688118
0.03883281350135803
-0.05512361228466034
0.09890295565128326
-0.1602812111377716
0.15472052991390228
0.1736474186182022
0.0017852336168289185
-0.16303470730781555
0.16394446790218353
0.013073354959487915
0.1070413738489151
-0.14622658491134644
0.1528628021478653
0.06539486348628998
-0.025877296924591064
0.12283007800579071
-0.13387608528137207
-0.10947361588478088
0.01120518147945404
-0.16820091009140015
0.12728510797023773
0.009877234697341919
-0.17080484330654144
-0.04729950428009033
-0.14895126223564148
0.10836286842823029
-0.12409315258264542
-0.10371264815330505
-0.05566686391830444
0.0015721619129180908
0.12188072502613068
0.029095739126205444
0.07421363890171051
0.1688225418329239
0.018469184637069702
0.14722274243831635
-0.14863644540309906
-0.15579679608345032
0.042323604226112366
0.11203078925609589
0.09176550805568695
0.09885765612125397
0.14759384095668793
0.025176823139190674
-0.05662456154823303
-0.06102551519870758
0.14279769361019135
0.12319616973400116
0.1308920532464981
-0.0067595988512039185
0.14051683247089386
-0.1295565813779831
-0.08930876851081848
0.05423960089683533
-0.1129285991191864
0.1738920956850052
0.016429394483566284
0.10980083048343658
-0.13835906982421875
-0.11506827175617218
-0.03441368043422699
0.02591767907142639
0.04700039327144623
-0.10796494781970978
-0.09692687541246414
0.12802676856517792
-0.028898149728775024
0.017993077635765076
0.17476113140583038
0.14558158814907074
0.02714306116104126
-0.09254775196313858
-0.05777283012866974
-0.010832861065864563
-0.10260268300771713
0.16440527141094208
-0.056975267827510834
0.05122695863246918
-0.09446244686841965
-0.05283914506435394
0.12446708977222443
0.11339311301708221
0.11373139917850494
0.006126046180725098
-0.07819999754428864
-0.017541348934173584
0.16175709664821625
-0.0774594396352768
0.11668126285076141
-0.04655329883098602
-0.007236406207084656
-0.020397216081619263
-0.10179580748081207
-0.05557563155889511
0.07507149875164032
0.12769387662410736
-0.07188623398542404
-0.07603500038385391
0.09946145117282867
0.06254301965236664
0.11409153044223785
-0.08003880083560944
0.15939711034297943
0.051580026745796204
-0.028759703040122986
0.13894028961658478
-0.08994577825069427
-0.07466107606887817
-0.03993767499923706
-0.13605347275733948
0.1750558465719223
-0.12533850967884064
-0.0824907198548317
-0.0843835100531578
-0.039538562297821045
-0.15411511063575745
-0.08513954281806946
0.004431366920471191
-0.10860410332679749
-0.07603681087493896
-0.042780131101608276
-0.0758911743760109
0.018306419253349304
-0.022129103541374207
-0.17227765917778015
-0.10983341932296753
0.09915865957736969
-0.17674937844276428
-0.16409732401371002
0.08658246695995331
0.08441092073917389
-0.12342002987861633
0.05085955560207367
0.1062103658914566
-0.13552886247634888
-0.11927950382232666
0.06641693413257599
0.020786255598068237
-0.16257914900779724
-0.05454585701227188
-0.13807985186576843
-0.03150877356529236
0.16120313107967377
0.021823212504386902
-0.10266013443470001
-0.00847412645816803
0.07658080756664276
-0.1433146893978119
0.08984450995922089
0.02088277041912079
0.16159935295581818
-0.04892578721046448
0.08281408250331879
-0.13373830914497375
-0.14887413382530212
0.15985523164272308
0.07552231848239899
0.1380176991224289
0.07207317650318146
0.05978952348232269
-0.055276647210121155
-0.06047610938549042
-0.020865708589553833
0.06768499314785004
0.14638648927211761
-0.14645442366600037
0.08258859813213348
0.12597320973873138
0.10690967738628387
0.06774760782718658
-0.1655305176973343
-0.14363804459571838
0.04673506319522858
0.1276593953371048
-0.06162551790475845
0.1358574777841568
-0.09041767567396164
-0.008974239230155945
-0.018607303500175476
0.011396512389183044
0.023428499698638916
-0.11603496968746185
0.1378883272409439
-0.06607156991958618
-0.09379816800355911
0.17177574336528778
-0.12680338323116302
-0.10454262048006058
0.16964663565158844
0.049069151282310486
0.13365794718265533
-0.1427190601825714
-0.17037738859653473
-0.0845470204949379
-0.17522315680980682
0.14921875298023224
0.04561777412891388
-0.1193753033876419
-0.1463288962841034
0.08808980882167816
0.0155678391456604
-0.17008891701698303
0.06363904476165771
0.012165680527687073
-0.13608179986476898
0.030514612793922424
-0.16483263671398163
-0.032385483384132385
0.11246107518672943
0.030375570058822632
0.06795679032802582
0.1116693764925003
-0.017252743244171143
0.06204800307750702
-0.04870060086250305
0.1131998747587204
-0.0318489670753479
-0.07833407074213028
-0.16089120507240295
0.16133277118206024
0.1496395319700241
-0.16356366872787476
0.09363175928592682
0.12935663759708405
-0.1240977942943573
0.13991574943065643
0.14950795471668243
-0.0379159152507782
0.05908703804016113
0.09476251900196075
-0.027194052934646606
-0.07585924863815308
-0.1423952281475067
-0.037765175104141235
0.10619105398654938
0.11257492005825043
-0.062269650399684906
0.0033072829246520996
0.09188498556613922
0.16633667051792145
0.09441934525966644
-0.07193893939256668
-0.09303469955921173
-0.05428619682788849
0.03633931279182434
-0.17088626325130463
-0.15680965781211853
0.09908948838710785
0.16919805109500885
0.05801168084144592
0.14063040912151337
0.03507806360721588
-0.04281088709831238
0.10833622515201569
-0.09522669017314911
-0.12622587382793427
-0.08910903334617615
0.12976215779781342
-0.1194751039147377
-0.03255660831928253
-0.03069862723350525
0.13346852362155914
-0.1759367287158966
0.07009328901767731
-0.1580345332622528
-0.12657661736011505
0.05703216791152954
-0.17605628073215485
0.15641535818576813
0.16167260706424713
-0.03028695285320282
0.12471528351306915
0.08670024573802948
0.05404078960418701
-0.08353734761476517
-0.07960361242294312
0.06482186913490295
0.17190416157245636
0.09722678363323212
-0.08224006742238998
-0.06768415123224258
-0.1448853611946106
-0.11479288339614868
-0.14162001013755798
-0.12198835611343384
0.0652332454919815
0.059964075684547424
0.030379027128219604
-0.16046759486198425
-0.046175241470336914
-0.020278722047805786
-0.14174491167068481
-0.0033721476793289185
0.16458149254322052
-0.07936200499534607
0.10755045711994171
0.10644795000553131
-0.042121320962905884
0.11396010220050812
-0.10010169446468353
0.07864706218242645
-0.05654522031545639
-0.16015903651714325
-0.14109569787979126
0.05852384865283966
-0.14578603208065033
0.16678141057491302
0.17304791510105133
0.020938590168952942
0.06971685588359833
0.11360903084278107
-0.01592203974723816
0.011864975094795227
-0.0403321236371994
-0.03640413284301758
-0.11324794590473175
0.1008782833814621
0.004442378878593445
-0.0018582195043563843
0.05150677263736725
-0.05078081786632538
-0.10352612286806107
-0.12626959383487701
0.09969736635684967
0.06251020729541779
0.029347822070121765
0.14859049022197723
0.039892375469207764
-0.049161121249198914
-0.1049482449889183
-0.0035206377506256104
0.057453304529190063
0.10635791718959808
0.0636649876832962
0.09413300454616547
0.162077859044075
0.16134147346019745
0.0770062655210495
-0.10896816849708557
0.09738318622112274
-0.1064712405204773
-0.11920009553432465
0.0762345939874649
0.12135006487369537
0.07246558368206024
-0.10213550925254822
0.15009446442127228
-0.14797939360141754
0.10142005980014801
-0.09772186726331711
-0.08513379096984863
-0.040705934166908264
0.03871573507785797
0.06302392482757568
-0.075008325278759
-0.08950542658567429
0.1356082707643509
-0.03535774350166321
0.08709855377674103
-0.11732911318540573
0.14029715955257416
0.17640374600887299
0.0063158124685287476
-0.04498887062072754
-0.032475680112838745
-0.020851165056228638
-0.13037440180778503
0.11778910458087921
-0.12871578335762024
-0.03220215439796448
0.03258199989795685
0.0591026246547699
-0.15138474106788635
-0.0074259936809539795
-0.07779387384653091
0.15991075336933136
-0.029205381870269775
-0.1088733822107315
0.08498679101467133
-0.121686652302742
-0.15487544238567352
0.11796922981739044
-0.16721513867378235
0.13480244576931
-0.1296011209487915
-0.1481761634349823
0.12863220274448395
0.10875086486339569
-0.08263816684484482
0.13286201655864716
-0.17294304072856903
-0.1314704716205597
0.17202432453632355
0.05386801064014435
-0.07699833065271378
-0.05029769241809845
-0.0056637972593307495
0.04170961678028107
0.1598106175661087
0.07981263101100922
0.04866001009941101
0.15498118102550507
-0.10470149666070938
0.1130325049161911
-0.17442446947097778
0.1562604159116745
-0.14699670672416687
0.06894919276237488
-0.10679303109645844
0.023092105984687805
0.0214187353849411
0.16984809935092926
-0.09058040380477905
-0.05742093175649643
0.14192147552967072
-0.1310301423072815
0.09074278175830841
-0.0881984755396843
-0.03690807521343231
-0.03230014443397522
0.13696013391017914
-0.11823748052120209
-0.014029234647750854
0.017808258533477783
-0.018513038754463196
0.14587049186229706
0.06727269291877747
0.06407012045383453
0.08758313953876495
-0.13643783330917358
-0.16105009615421295
-0.07713654637336731
0.019637107849121094
-0.08288900554180145
-0.054936669766902924
-0.1153959184885025
-0.06791068613529205
-0.05089111626148224
0.1527053862810135
0.02404823899269104
0.14307166635990143
-0.10837109386920929
0.04786621034145355
0.10813690721988678
-0.10046883672475815
-0.15095491707324982
-0.07006686180830002
0.01996287703514099
-0.0893775150179863
0.04597310721874237
0.0972631424665451
0.044172778725624084
0.03618176281452179
-0.016669034957885742
0.16960908472537994
-0.04603244364261627
-0.09472400695085526
0.10605664551258087
0.15578947961330414
0.10113780200481415
0.0525788813829422
0.15767504274845123
0.07818879187107086
0.07236185669898987
-0.013474851846694946
-0.08168263733386993
-0.06123652309179306
0.15285851061344147
-0.05166064202785492
-0.1713162511587143
-0.17471830546855927
-0.12089069187641144
0.06685593724250793
-0.10225531458854675
0.11131738126277924
-0.13699835538864136
0.008070200681686401
0.07358287274837494
-0.1592491865158081
-0.12137743830680847
-0.1692609190940857
0.12949009239673615
-0.17143742740154266
-0.10227388143539429
0.12229259312152863
0.17184074223041534
-0.04099413752555847
-0.01968725025653839
-0.1100074052810669
-0.07593167573213577
-0.08301367610692978
-0.14559462666511536
0.09432102739810944
0.0009768754243850708
-0.054695144295692444
-0.09350334852933884
0.006478220224380493
-0.13760720193386078
-0.06508661806583405
0.03687386214733124
0.023347705602645874
-0.07837604731321335
-0.025107726454734802
-0.0017150640487670898
0.10221980512142181
0.04703006148338318
0.05009192228317261
-0.1428239345550537
-0.1504688560962677
0.07333926856517792
0.04239495098590851
0.0828351229429245
-0.12181247770786285
0.13327325880527496
0.16215498745441437
-0.04101023077964783
0.0013638436794281006
-0.05413256585597992
-0.1473204791545868
0.0005824267864227295
0.04936300218105316
-0.032053977251052856
-0.09211651235818863
0.15159179270267487
-0.10025694221258163
0.09973849356174469
0.044445157051086426
0.04789641499519348
0.028976961970329285
0.017268434166908264
-0.05264672636985779
-0.00418446958065033
0.14816094934940338
0.03185376524925232
0.006414011120796204
0.0052554309368133545
-0.16229626536369324
0.13289333879947662
0.1400526612997055
0.16768132150173187
-0.13123971223831177
-0.13734403252601624
-0.13101376593112946
-0.03653036057949066
0.16253744065761566
-0.1154337078332901
0.10012669861316681
0.09706573188304901
-0.14322371780872345
0.11727802455425262
0.15122239291667938
-0.12496335804462433
0.08801992237567902
-0.03860381245613098
-0.15353959798812866
0.03463734686374664
-0.09662535786628723
0.133265420794487
0.1331918090581894
-0.10353853553533554
-0.15151570737361908
0.08634065091609955
0.16645820438861847
-0.06505831331014633
0.00810512900352478
-0.13823741674423218
-0.12867239117622375
0.03628063201904297
-0.08815373480319977
-0.16250364482402802
-0.08258497714996338
-0.04721100628376007
-0.04021863639354706
-0.14542746543884277
-0.039124831557273865
-0.031085744500160217
0.0765533298254013
-0.17283423244953156
0.005402296781539917
0.024008706212043762
-0.09324412792921066
-0.04025964438915253
-0.07119318842887878
0.11895756423473358
-0.16318878531455994
-0.028374433517456055
-0.04801853001117706
-0.16747713088989258
0.05249844491481781
-0.15794803202152252
-0.08987941592931747
-0.12051509320735931
0.09419922530651093
0.1591578871011734
-0.1321006715297699
0.02979832887649536
0.09575404226779938
-0.021517708897590637
0.022479817271232605
0.09492368996143341
0.17494575679302216
0.03111681342124939
0.05159005522727966
0.08282436430454254
0.04953058063983917
0.1395498663187027
0.05751793086528778
0.12737281620502472
0.14748580753803253
0.06985913217067719
-0.04459385573863983
0.0995980054140091
0.10963656008243561
-0.016303792595863342
0.17089395225048065
-0.00014062225818634033
0.014115765690803528
0.058102309703826904
-0.12115244567394257
-0.13424496352672577
0.1433320790529251
0.005490913987159729
0.1443832963705063
0.04307527840137482
-0.05561601370573044
0.11163048446178436
-0.17079176008701324
0.05956582725048065
-0.12978538870811462
-0.17043352127075195
0.030873402953147888
-0.08944060653448105
0.09855128824710846
0.004554256796836853
-0.041946396231651306
-0.08829046040773392
-0.0028276145458221436
0.1426623910665512
0.09698857367038727
-0.07538741081953049
0.038865089416503906
-0.073582224547863
0.061783090233802795
-0.06137409061193466
-0.08284462243318558
0.011409744620323181
0.13703055679798126
0.13658247888088226
-0.007671922445297241
0.006067186594009399
0.14516191184520721
-0.08227307349443436
0.010660290718078613
0.10350207984447479
-0.0398903489112854
-0.14397698640823364
0.12111492455005646
0.08211593329906464
-0.019093617796897888
0.15248019993305206
-0.027119681239128113
0.1397111862897873
-0.07900553196668625
-0.12766680121421814
-0.05357368290424347
-0.10878588259220123
0.019994258880615234
0.033368125557899475
0.08830012381076813
-0.11307312548160553
0.15862692892551422
0.14629004895687103
0.1259985715150833
0.07286329567432404
-0.03804865479469299
0.005327284336090088
0.017192229628562927
-0.12616361677646637
0.06255258619785309
-0.0585450679063797
-0.027818605303764343
-0.09000731259584427
0.1001368910074234
0.10349141061306
0.10642756521701813
0.025837048888206482
-0.029891476035118103
-0.045065879821777344
0.1612830013036728
0.1157287210226059
0.057514965534210205
-0.1378163993358612
0.08447431027889252
-0.008514061570167542
-0.028877675533294678
0.07890377938747406
-0.13691255450248718
-0.09426422417163849
0.1594950407743454
-0.12433105707168579
0.12538398802280426
-0.09497404098510742
-0.07017188519239426
-0.08245830237865448
-0.1334519386291504
-0.09328819066286087
0.1454424113035202
0.00505104660987854
0.11174239218235016
-0.038907647132873535
-0.05781753361225128
0.16030289232730865
0.0839269608259201
-0.04382559657096863
0.1026143878698349
0.15077482163906097
-0.16580182313919067
0.10797609388828278
-0.013302132487297058
-0.09015006572008133
0.13544179499149323
-0.06174822896718979
-0.05574154853820801
0.0976378470659256
-0.0941457524895668
0.05374018847942352
-0.0932450145483017
0.06374388933181763
-0.1479858011007309
-0.04522682726383209
0.09374667704105377
-0.013891741633415222
0.10692526400089264
-0.1095660850405693
0.1561395674943924
0.019048884510993958
-0.01685437560081482
-0.04824170470237732
0.12048475444316864
-0.007868707180023193
-0.015661701560020447
-0.1535809189081192
-0.0647134929895401
-0.1672149896621704
-0.05957929044961929
-0.13238951563835144
-0.030192658305168152
-0.114211805164814
-0.08419758081436157
-0.00544014573097229
-0.015938803553581238
0.15836171805858612
0.01640571653842926
0.17153401672840118
-0.10068188607692719
0.1466314047574997
-0.03383505344390869
-0.03004451096057892
0.1595035344362259
0.03989402949810028
-0.1021445095539093
0.039700672030448914
0.17095519602298737
0.02184593677520752
0.09835131466388702
0.141061469912529
0.10521756112575531
0.09938354790210724
0.16255880892276764
-0.12893237173557281
0.0638875812292099
-0.10222279280424118
-0.1165410727262497
-0.05247805267572403
-0.08578845113515854
0.06845392286777496
-0.04704694449901581
0.13494445383548737
0.061392828822135925
-0.12997125089168549
0.06479454040527344
-0.15219449996948242
0.018575340509414673
-0.008303746581077576
0.018551066517829895
0.144612655043602
-0.0761755183339119
-0.1619274765253067
0.14892880618572235
0.16557814180850983
-0.047070056200027466
-0.06857338547706604
-0.0040906816720962524
-0.09500129520893097
0.07799001038074493
-0.1580580174922943
-0.014029532670974731
0.16512908041477203
-0.07956048101186752
0.16798801720142365
0.13619552552700043
0.1435660570859909
0.09812219440937042
0.09859295189380646
-0.08366336673498154
0.13019023835659027
-0.16621161997318268
-0.10543935745954514
-0.008667856454849243
-0.16426029801368713
-0.05521232634782791
-0.12173803150653839
-0.17466825246810913
-0.1696394681930542
0.1397857815027237
-0.033181026577949524
0.15819881856441498
-0.14687462151050568
0.01795792579650879
-0.05940210074186325
-0.09312175214290619
0.13568498194217682
-0.1640966385602951
-0.140628844499588
0.14829464256763458
-0.13642387092113495
0.17339952290058136
0.08620955049991608
0.05574505031108856
-0.16047661006450653
0.08083488047122955
0.004406958818435669
0.08674557507038116
0.06413578987121582
0.13470418751239777
0.0351012647151947
-0.11592553555965424
-0.15406297147274017
-0.1543697714805603
-0.004452690482139587
-0.1433957815170288
0.010754987597465515
0.12519891560077667
-0.11388111859560013
-0.12721586227416992
0.1718270629644394
-0.05452929437160492
-0.11974874138832092
-0.08186947554349899
0.11115111410617828
0.13085107505321503
0.16718517243862152
0.14552317559719086
-0.03109745681285858
0.12126268446445465
0.11017130315303802
-0.13199590146541595
-0.05510028451681137
0.14186744391918182
-0.16296763718128204
0.10095734894275665
-0.014176055788993835
-0.011627301573753357
0.1250944286584854
0.07271705567836761
-0.1740911602973938
-0.08422742038965225
-0.06993970274925232
-0.09621554613113403
-0.13045734167099
-0.03248991072177887
-0.16617852449417114
-0.09393002092838287
-0.14706678688526154
-0.07701777666807175
-0.02002573013305664
-0.11368878185749054
-0.07732530683279037
-0.12747439742088318
0.17050261795520782
-0.0830252468585968
0.08155275881290436
0.02848711609840393
-0.06607232987880707
-0.07744015753269196
0.024844810366630554
0.14618919789791107
-0.03333069384098053
0.07121936976909637
-0.09421325474977493
0.157403364777565
-0.061278775334358215
-0.00950537621974945
0.09048192203044891
0.17189182341098785
-0.031096160411834717
-0.03686392307281494
0.035004690289497375
-0.14111316204071045
0.14609824120998383
0.117020383477211
-0.13008064031600952
0.09665147960186005
0.08233661949634552
-0.13026884198188782
0.007970079779624939
0.13424377143383026
0.05086106061935425
0.1279231458902359
-0.0982334315776825
-0.14335457980632782
0.17341135442256927
0.15377716720104218
0.042364656925201416
-0.12548400461673737
-0.14620351791381836
0.1642286628484726
-0.10085146129131317
-0.07992641627788544
-0.12761035561561584
0.031227394938468933
0.04445721209049225
0.014723390340805054
-0.14685237407684326
0.012501031160354614
-0.1167089194059372
-0.12028466165065765
0.1335698813199997
0.08021868765354156
0.10372532904148102
0.07144927978515625
0.1669655293226242
-0.09971541911363602
-0.14470110833644867
-0.1638009250164032
0.0414792001247406
-0.12576277554035187
-0.10706660896539688
0.10195572674274445
0.11178137362003326
0.023516863584518433
-0.08653751015663147
0.12053723633289337
0.028726428747177124
0.16894744336605072
0.16260288655757904
-0.0950474664568901
0.09262271225452423
0.12643949687480927
0.12038122117519379
-0.16513130068778992
-0.14625008404254913
0.04580654203891754
-0.13721825182437897
0.1004774421453476
-0.16354306042194366
0.02835126221179962
0.13837198913097382
-0.004086345434188843
-0.0810251235961914
-0.059560030698776245
-0.14301449060440063
0.11199240386486053
-0.1259174346923828
0.12011085450649261
-0.010947257280349731
-0.11214454472064972
0.14253942668437958
-0.03886577486991882
0.10538814961910248
0.1487831026315689
-0.0016299933195114136
0.0820864588022232
0.027249708771705627
0.04924534261226654
0.07080739736557007
0.04604251682758331
0.01904243230819702
0.15580816566944122
0.10509832203388214
0.1461438685655594
-0.005524277687072754
0.17510293424129486
0.036362022161483765
-0.15401636064052582
-0.1064387857913971
-0.07783938944339752
-0.1556166410446167
-0.05516790598630905
-0.1628427952528
-0.14483535289764404
0.1718042939901352
-0.03539633750915527
0.13286615908145905
0.1624540537595749
-0.055636219680309296
-0.0580906867980957
0.06431777775287628
-0.17475907504558563
-0.07637539505958557
0.11848770081996918
-0.022603437304496765
-0.08306282013654709
-0.06029610335826874
0.02276088297367096
0.14297537505626678
-0.1764630824327469
-0.14548468589782715
-0.14719811081886292
-0.12618017196655273
-0.1368507295846939
0.05347543954849243
-0.06587366759777069
-0.16433075070381165
0.17575915157794952
0.17633603513240814
0.17585857212543488
0.059711992740631104
-0.17211030423641205
0.1402486115694046
-0.08876155316829681
-0.12897369265556335
0.17561344802379608
0.1400258094072342
0.15983889997005463
0.021052420139312744
0.12774278223514557
-0.037546053528785706
0.15014268457889557
-0.15911246836185455
-0.04353092610836029
-0.08088266849517822
0.045657381415367126
-0.07686301320791245
-0.11060555279254913
0.015612855553627014
0.06291010975837708
0.1367465704679489
0.06761915981769562
0.019833803176879883
0.12910006940364838
0.15645892918109894
-0.14130190014839172
0.12606211006641388
0.1381341964006424
0.022247418761253357
0.0429299920797348
0.10150407254695892
0.14366306364536285
-0.02654382586479187
-0.12041343748569489
0.0010089725255966187
-0.05549738556146622
0.03740526735782623
0.12506382167339325
-0.051509007811546326
0.03843267261981964
-0.10279633104801178
0.041683003306388855
-0.013306185603141785
-0.020029842853546143
-0.008877366781234741
-0.07460967451334
-0.13392102718353271
0.055980175733566284
0.02058856189250946
-0.15430879592895508
-0.08506045490503311
0.0020266324281692505
0.06181606650352478
0.0025576353073120117
-0.04627987742424011
0.04572121798992157
-0.1383287012577057
-0.0988936796784401
0.0013020485639572144
0.06158025562763214
-0.1479681134223938
-0.12826381623744965
0.0024872273206710815
-0.007573872804641724
-0.06192627549171448
0.14744709432125092
-0.054179221391677856
-0.08386615663766861
-0.11671462655067444
0.1300509124994278
0.16930349171161652
0.06794629991054535
-0.10535462200641632
0.14340685307979584
-0.050025567412376404
-0.02987566590309143
0.10034485161304474
0.1635534018278122
-0.008217304944992065
-0.16834376752376556
-0.02170439064502716
0.08498124778270721
0.11343760788440704
0.04110068082809448
0.09461329877376556
-0.16064481437206268
0.12414808571338654
-0.10938982665538788
0.018591418862342834
-0.02111084759235382
0.014243930578231812
0.08403541147708893
-0.14759674668312073
-0.17167410254478455
-0.03832566738128662
-0.0768500342965126
-0.07374090701341629
0.0062514543533325195
-0.029210582375526428
0.13923723995685577
0.06724731624126434
0.017089128494262695
0.0492425411939621
-0.07858893275260925
0.11054952442646027
-0.033608466386795044
0.17665715515613556
-0.06818580627441406
-0.004114419221878052
0.09308089315891266
0.013610288500785828
0.13011352717876434
0.12991119921207428
-0.08570628613233566
0.06565241515636444
-0.1353534758090973
-0.07429192960262299
0.15791238844394684
0.09234897792339325
-0.1367553174495697
-0.1766532063484192
0.13098321855068207
-0.03929087519645691
-0.0005888938903808594
-0.030845746397972107
0.06767256557941437
0.03358624875545502
-0.16173656284809113
0.14288844168186188
-0.10108213126659393
-0.045835286378860474
0.0031136125326156616
0.008696794509887695
-0.15946242213249207
0.1737353652715683
-0.14824135601520538
0.14862386882305145
0.11051376163959503
-0.0987069234251976
-0.10527262836694717
-0.07014424353837967
-0.06212274730205536
-0.1599339246749878
0.03077167272567749
-0.16327638924121857
0.0726809948682785
-0.14223676919937134
-0.09533071517944336
0.048422932624816895
0.13308803737163544
0.04727765917778015
-0.15689754486083984
0.03653682768344879
-0.08532985299825668
-0.007443025708198547
-0.03943979740142822
0.0381932407617569
0.16283534467220306
-0.05212783068418503
-0.07267075031995773
-0.10660558193922043
0.170724019408226
0.16218255460262299
-0.14333142340183258
-0.14433525502681732
-0.1426278054714203
0.037216365337371826
-0.10390064120292664
-0.05351119488477707
0.040927961468696594
0.1731315702199936
-0.08199766278266907
0.10386775434017181
0.16276167333126068
-0.04727594554424286
-0.11117055267095566
-0.12211589515209198
-0.08412963896989822
-0.025047197937965393
-0.16347183287143707
0.11446334421634674
0.017768055200576782
-0.022700563073158264
-0.029555246233940125
-0.07884503901004791
0.09041766822338104
-0.09328322112560272
-0.06185951828956604
0.06659166514873505
-0.15658211708068848
0.06334255635738373
-0.16253483295440674
0.11675070226192474
0.06335830688476562
0.0893368273973465
-0.10685943067073822
-0.1013476625084877
0.16793496906757355
-0.09388937056064606
0.09449450671672821
-0.09515944868326187
0.007876485586166382
-0.14411990344524384
0.09108592569828033
0.09816412627696991
-0.06035809963941574
0.13335217535495758
0.06662900745868683
-0.11798641085624695
0.0247708261013031
-0.11129783093929291
0.12379242479801178
-0.11084248125553131
-0.10489816963672638
0.04625225067138672
-0.006057471036911011
0.045011237263679504
-0.019402235746383667
-0.07448410242795944
0.16134466230869293
-0.09568183869123459
-0.16442625224590302
-0.050398439168930054
0.014398589730262756
-0.1097031906247139
0.07753883302211761
-0.13302628695964813
-0.05338361859321594
0.08091776072978973
-0.034006208181381226
0.13313432037830353
0.16229228675365448
0.11300177872180939
-0.07547448575496674
-0.06655532866716385
0.13155163824558258
-0.11818846315145493
-0.002238631248474121
-0.15548864006996155
-0.1592230498790741
0.16423065960407257
0.1319863349199295
-0.010795578360557556
-0.14926350116729736
0.0941547304391861
-0.15346604585647583
0.10480265319347382
0.03954385221004486
0.06747330725193024
0.16598905622959137
0.025646939873695374
-0.032583266496658325
0.13480223715305328
0.11050896346569061
0.16937585175037384
-0.14376342296600342
-0.08012349903583527
-0.07951991260051727
0.04939761757850647
-0.1544707715511322
0.14939899742603302
-0.08857608586549759
-0.012237757444381714
-0.04146125912666321
0.1463875025510788
-0.16451790928840637
0.0793430358171463
-0.02230830490589142
0.027755916118621826
0.060953229665756226
-0.1648416370153427
-0.03358343243598938
-0.12394525855779648
0.13148586452007294
-0.007565319538116455
0.026754140853881836
0.15405474603176117
0.12552453577518463
0.1329583078622818
0.16308341920375824
0.07667921483516693
0.01864340901374817
0.05331471562385559
-0.09749170392751694
0.019418522715568542
-0.10725829005241394
-0.012767255306243896
-0.17463496327400208
0.03985859453678131
0.03164450824260712
-0.1411881297826767
0.026927411556243896
-0.10088414698839188
0.11329202353954315
-0.10533241182565689
-0.12167102098464966
-0.04268734157085419
-0.1536475569009781
0.10685653984546661
0.163656547665596
-0.112629234790802
0.08092884719371796
-0.08497066050767899
0.176606222987175
0.09745897352695465
0.005085065960884094
0.13339410722255707
-0.09771478921175003
-0.016102135181427002
-0.15936854481697083
0.08351592719554901
-0.06771289557218552
-0.004633873701095581
0.06314845383167267
0.07611711323261261
-0.019899189472198486
0.11140488088130951
0.045833975076675415
-0.10293067246675491
-0.012020513415336609
-0.06650294363498688
-0.09850974380970001
0.15526162087917328
-0.015876829624176025
0.0636054128408432
-0.15821713209152222
-0.04987099766731262
-0.1419501155614853
0.08114226162433624
-0.12106139957904816
0.030444413423538208
0.06135077774524689
0.011857956647872925
0.08339808881282806
0.06953899562358856
0.0808108001947403
0.049899205565452576
0.030300021171569824
0.04808029532432556
-0.12249165773391724
-0.15957966446876526
0.029590249061584473
0.12975795567035675
-0.1501123011112213
-0.05670580267906189
-0.1746477484703064
-0.01678389310836792
0.07875584065914154
-0.11880536377429962
0.0942988246679306
-0.02134700119495392
-0.1585664302110672
-0.036134809255599976
0.14678160846233368
0.012977957725524902
0.011304795742034912
-0.007343202829360962
-0.1364516168832779
0.1041974276304245
-0.050727203488349915
0.04436008632183075
0.1722266525030136
0.04955644905567169
-0.07730686664581299
0.15148399770259857
-0.15147216618061066
-0.08539503812789917
-0.0058711618185043335
-0.0714428722858429
-0.03601650893688202
0.04512549936771393
-0.010305404663085938
0.1294652670621872
-0.016711220145225525
-0.035766661167144775
0.10536403954029083
0.06795650720596313
-0.11340755969285965
0.17156769335269928
0.14635662734508514
0.17343659698963165
0.059429898858070374
-0.08202752470970154
-0.07936051487922668
0.02738688886165619
-0.04290790855884552
-0.04721306264400482
0.1551714986562729
0.08159540593624115
-0.13438323140144348
-0.06978575885295868
0.030096009373664856
-0.023523926734924316
-0.09638174623250961
0.09571965038776398
-0.11609712243080139
0.016443386673927307
0.11036340892314911
0.04739771783351898
0.15979866683483124
-0.11669155955314636
0.044765934348106384
-0.07058937102556229
-0.0577082633972168
-0.13948532938957214
-0.12849600613117218
-0.06274934113025665
-0.031221896409988403
-0.11094433069229126
-0.11624076962471008
0.014267131686210632
-0.15790531039237976
0.032050639390945435
0.0024744421243667603
-0.05130678415298462
-0.16034188866615295
-0.14413809776306152
-0.13183830678462982
0.054611772298812866
0.14185215532779694
-0.022817164659500122
-0.06796537339687347
-0.049592867493629456
-0.0587848424911499
-0.02623683214187622
0.06434862315654755
0.006916254758834839
-0.1057833805680275
0.08853338658809662
0.11657465994358063
-0.05156141519546509
0.06335629522800446
-0.14763092994689941
-0.0869591236114502
-0.09041590243577957
0.05727282166481018
-0.13622573018074036
-0.019196942448616028
-0.12059547007083893
0.058037012815475464
-0.06523632258176804
-0.14783968031406403
0.15245725214481354
0.03422117233276367
-0.11635556071996689
0.13691748678684235
-0.136943519115448
-0.1265190839767456
0.001941770315170288
-0.09484522044658661
0.06859593093395233
0.018473029136657715
-0.10180280357599258
0.06487603485584259
0.1218089908361435
-0.08200735598802567
0.09073992073535919
-0.0015046000480651855
-0.11978989839553833
0.08163107931613922
-0.04051002860069275
0.048243746161460876
0.0997239202260971
0.04447522759437561
-0.06017240136861801
0.014256954193115234
0.09518052637577057
-0.11036910861730576
0.15375040471553802
0.07971946895122528
0.14689280092716217
0.15797792375087738
-0.14454416930675507
0.14952360093593597
-0.16605626046657562
0.15317212045192719
0.03733903169631958
-0.15454258024692535
-0.08052709698677063
0.1483347862958908
0.07970269024372101
0.10743178427219391
-0.16075399518013
0.060613468289375305
0.12844349443912506
-0.09643226116895676
0.03640352189540863
-0.13519027829170227
-0.16934141516685486
-0.06756649911403656
-0.17605920135974884
0.0293063223361969
0.038324594497680664
-0.06550237536430359
-0.0029685497283935547
-0.13514307141304016
0.061175644397735596
-0.005114555358886719
-0.12271678447723389
0.08686359226703644
-0.06501372903585434
-0.01310265064239502
0.14706675708293915
0.03546147048473358
0.11237309873104095
0.0836842805147171
-0.09850597381591797
-0.021046116948127747
-0.07737752795219421
-0.013258382678031921
-0.02065126597881317
0.10487790405750275
-0.022980988025665283
0.06931571662425995
-0.03764262795448303
-0.06163622438907623
-0.06882338225841522
-0.11553835868835449
-0.14563527703285217
0.07804642617702484
-0.13757997751235962
-0.12696002423763275
-0.021240919828414917
0.02368481457233429
-0.14024832844734192
-0.00637662410736084
-0.051808103919029236
-0.11625780165195465
-0.06461579352617264
-0.14956864714622498
0.1495204120874405
-0.12455786764621735
-0.0007111281156539917
0.09642471373081207
0.04975394904613495
0.1394781619310379
-0.009098619222640991
-0.07721587270498276
0.057088643312454224
-0.15339398384094238
-0.03573384881019592
0.12712259590625763
0.0824199765920639
0.03960062563419342
0.17267872393131256
-0.005119889974594116
0.07760505378246307
-0.04180353879928589
0.020333603024482727
-0.04172222316265106
0.038112714886665344
0.09660176932811737
-0.06556618958711624
0.13337059319019318
0.12546463310718536
0.06934486329555511
0.027325615286827087
0.1533859521150589
-0.04231861233711243
0.15594227612018585
-0.0358847975730896
-0.02897694706916809
0.1669231504201889
0.1025041788816452
0.08609704673290253
0.024721741676330566
0.09355445206165314
0.006818860769271851
-0.1442958265542984
0.08122025430202484
0.13594551384449005
0.16737361252307892
0.0797388106584549
-0.04342739284038544
-0.16665373742580414
-0.03725525736808777
-0.040847837924957275
-0.09605199098587036
0.05950593948364258
0.08011679351329803
-0.05117301642894745
0.09699828922748566
0.08800037205219269
0.059054672718048096
-0.06412822008132935
0.11074589192867279
0.13801483809947968
0.1311406046152115
0.07956193387508392
-0.13603675365447998
0.16201211512088776
0.013217687606811523
0.06792284548282623
0.11700151860713959
-0.03338536620140076
0.13868986070156097
-0.024293571710586548
-0.1556602567434311
-0.059507280588150024
0.028477296233177185
-0.010817721486091614
0.08585266768932343
0.08160899579524994
0.008262887597084045
0.10275600850582123
0.07649166882038116
0.031467825174331665
0.01813185214996338
0.03956185281276703
-0.008761480450630188
-0.030125349760055542
-0.1281425803899765
0.036634087562561035
0.1550537794828415
-0.056339673697948456
-0.08666645735502243
-0.03957808017730713
0.08630533516407013
-0.1694052666425705
0.11989600956439972
-0.03195720911026001
-0.14571282267570496
0.0011192560195922852
0.06624099612236023
0.054800599813461304
0.12089098989963531
-0.03175421059131622
0.1391712874174118
0.05175960063934326
-0.10168063640594482
0.017728611826896667
-0.0007872134447097778
0.06517986953258514
-0.09585634618997574
-0.021809518337249756
-0.10052543878555298
0.02746930718421936
0.0152435302734375
0.07560800015926361
-0.06502065807580948
-0.08367449790239334
0.06416703760623932
-0.007361665368080139
-0.05432871729135513
-0.07856966555118561
-0.17500515282154083
0.0459553599357605
-0.020496875047683716
0.09057779610157013
-0.1423255205154419
-0.11548836529254913
0.17260222136974335
0.11377798020839691
0.09524969756603241
0.10007689893245697
0.051479339599609375
-0.17542879283428192
0.16063176095485687
-0.08394499123096466
0.045877665281295776
0.0029287189245224
0.1506938487291336
0.16094650328159332
-0.1389206498861313
-0.04292081296443939
-0.09904732555150986
-0.14965203404426575
-0.12401887029409409
-0.011386722326278687
-0.14865951240062714
-0.0872931182384491
0.02044181525707245
0.16470088064670563
0.13418914377689362
0.009245246648788452
0.12124665081501007
0.09917731583118439
-0.10540661215782166
-0.1564968079328537
-0.10276147723197937
0.14424900710582733
0.09377993643283844
-0.062436722218990326
0.12301896512508392
-0.0872737318277359
0.016192972660064697
0.1567939668893814
-0.0068215131759643555
-0.06601612269878387
0.14504800736904144
-0.09941130876541138
0.026476308703422546
-0.0750286802649498
-0.04952406883239746
0.12733642756938934
-0.06030552089214325
0.1024499386548996
0.11507962644100189
-0.08181758970022202
0.046510666608810425
0.0989886075258255
0.0015229731798171997
0.16623274981975555
0.15235157310962677
-0.038278862833976746
0.1685236543416977
0.10473977029323578
-0.03259177505970001
0.037505313754081726
-0.1632101833820343
-0.06668847054243088
-0.02109883725643158
-0.15650606155395508
0.09066249430179596
-0.005131170153617859
-0.09500955045223236
0.07460670173168182
0.12455461919307709
-0.07860260456800461
-0.11971190571784973
0.1582389622926712
0.17501743137836456
0.025091275572776794
-0.05382475256919861
-0.03387933969497681
-0.02859288454055786
-0.0970597192645073
0.11060170829296112
-0.07497591525316238
0.04077966511249542
0.07254545390605927
0.1359928995370865
-0.06864870339632034
0.14376001060009003
0.08528943359851837
0.043469518423080444
-0.003955245018005371
0.10490958392620087
-0.134296715259552
0.17205269634723663
0.017400383949279785
-0.11300218850374222
-0.14236274361610413
0.1093272715806961
0.06555962562561035
0.04452285170555115
0.04282502830028534
-0.012127816677093506
0.02985703945159912
-0.07052891701459885
0.10676191747188568
0.10796280205249786
-0.04600541293621063
-0.12781646847724915
-0.1048799455165863
0.14112059772014618
0.09420879185199738
-0.15604792535305023
0.1455986052751541
-0.0053097158670425415
-0.14442072808742523
0.06315886974334717
-0.06498394906520844
0.014551132917404175
-0.020876407623291016
0.05634337663650513
0.1543806940317154
0.06787589192390442
0.06371830403804779
0.15317536890506744
-0.08956000953912735
-0.1300162971019745
-0.08915232121944427
-0.07040593028068542
-0.16118435561656952
0.12343360483646393
0.05496606230735779
0.10402785241603851
0.022582024335861206
-0.04818756878376007
-0.038636669516563416
0.08912487328052521
0.12121321260929108
-0.05167783796787262
-0.1394273340702057
-0.055582061409950256
0.14325369894504547
-0.07022543251514435
-0.14406973123550415
0.09830327332019806
0.13010410964488983
-0.12234269082546234
-0.10256993770599365
0.03913514316082001
-0.026546970009803772
-0.00020964443683624268
-0.09635186940431595
-0.1493854969739914
0.009336873888969421
0.14696674048900604
0.1427004486322403
0.12932880222797394
-0.09776939451694489
0.06818099319934845
-0.056131571531295776
-0.11130588501691818
-0.17650490999221802
-0.029378846287727356
0.09212537109851837
-0.16183426976203918
0.07066532969474792
-0.04174228012561798
0.07259495556354523
-0.1537051498889923
0.04805111885070801
-0.10020981729030609
0.1307878941297531
0.03423495590686798
0.024598360061645508
-0.12269126623868942
0.1309850960969925
-0.08347517997026443
0.07038788497447968
-0.01805749535560608
0.13716186583042145
-0.15999069809913635
-0.011155009269714355
-0.13332542777061462
0.10393495857715607
-0.08953838795423508
-0.10958074778318405
-0.052012160420417786
-0.013272970914840698
-0.05342068523168564
-0.03513805568218231
0.15371139347553253
-0.07173722237348557
-0.07692136615514755
-0.16044022142887115
0.14294497668743134
0.04250985383987427
-0.1440662294626236
-0.06780243664979935
0.024520620703697205
0.06409050524234772
0.1030292958021164
-0.09152425825595856
-0.06362618505954742
0.0881042629480362
-0.09745679050683975
-0.05346532166004181
0.08803702890872955
0.01717209815979004
0.009918496012687683
-0.09356558322906494
-0.08195840567350388
0.015375703573226929
0.14144639670848846
0.011629447340965271
0.0030089914798736572
-0.09569631516933441
0.011623680591583252
-0.14303316175937653
-0.028788357973098755
-0.09316777437925339
0.10565774142742157
0.02456866204738617
0.029196515679359436
-0.017902225255966187
-0.14101499319076538
-0.03623583912849426
0.07554690539836884
0.0041214823722839355
-0.04743678867816925
0.09363968670368195
0.029802247881889343
0.14451666176319122
-0.04554112255573273
-0.1261623352766037
-0.06799943000078201
0.030561432242393494
0.07242727279663086
-0.01523195207118988
-0.056145377457141876
-0.009287059307098389
0.16059838235378265
0.07810483872890472
0.17486344277858734
0.15977473556995392
0.16082336008548737
0.16721214354038239
0.011487200856208801
-0.07807756215333939
0.1586737185716629
-0.1181592345237732
-0.03129728138446808
-0.1695658266544342
-0.014769062399864197
0.16819243133068085
0.0993259996175766
-0.02765992283821106
-0.01861657202243805
0.16344620287418365
-0.1573365479707718
-0.17475846409797668
-0.10022073984146118
0.11642999947071075
-0.13302510976791382
-0.1516711264848709
-0.08980317413806915
-0.05795273929834366
0.04012434184551239
-0.130913645029068
0.020177587866783142
0.12790586054325104
-0.09052670747041702
-0.04484345018863678
-0.049974218010902405
0.08396400511264801
-0.01786327362060547
0.038273826241493225
-0.06887912005186081
-0.12138740718364716
0.12459646165370941
-0.16839267313480377
0.10015477240085602
-0.03286655247211456
0.02180670201778412
-0.16272665560245514
-0.11336319893598557
-0.07273121178150177
-0.15971854329109192
0.11198823153972626
0.1156296581029892
0.09807850420475006
0.0950891524553299
0.0265657901763916
-0.06471321731805801
0.17320777475833893
0.08138085901737213
-0.06055579334497452
-0.06569761782884598
-0.13168206810951233
-0.13546131551265717
-0.15772230923175812
-0.07792829722166061
0.13505493104457855
0.12300680577754974
0.020033299922943115
0.1499142199754715
0.10548554360866547
-0.11910578608512878
0.004685238003730774
0.08220969140529633
-0.10407129675149918
0.14694537222385406
0.0078965425491333
-0.1478150188922882
-0.11437107622623444
0.14607055485248566
-0.03182007372379303
0.1317637413740158
0.12246669828891754
-0.11259564012289047
0.13373823463916779
0.027384132146835327
-0.03502663969993591
-0.11578291654586792
-0.13697859644889832
0.0797952264547348
0.16608478128910065
-0.0715528279542923
-0.15908657014369965
0.11872206628322601
0.11168970167636871
0.09302259981632233
-0.1444375216960907
0.167008176445961
0.1407790631055832
0.1166229397058487
0.06695879995822906
0.09784601628780365
-0.015240132808685303
-0.09323262423276901
0.1594274789094925
0.015735581517219543
0.15419499576091766
-0.0793670266866684
-0.0883881151676178
0.027874425053596497
0.07241958379745483
0.013947933912277222
-0.10718449205160141
-0.022046104073524475
-0.0003673285245895386
-0.11205877363681793
-0.02699604630470276
0.007770150899887085
0.13960571587085724
0.1626703292131424
-0.15148122608661652
0.01626966893672943
-0.08070697635412216
-0.00420813262462616
-0.12958796322345734
-0.12953361868858337
-0.09011242538690567
0.11683548986911774
-0.08785247057676315
-0.09393136948347092
-0.05073577165603638
-0.01030685007572174
0.12633289396762848
0.11370794475078583
0.1605575829744339
-0.04135964810848236
-0.1141226664185524
0.06579169631004333
0.11883081495761871
-0.03327809274196625
-0.04445773363113403
0.0969868153333664
0.16988436877727509
0.15602229535579681
0.15623222291469574
-0.08364402502775192
0.018946334719657898
-0.12192678451538086
-0.11585699021816254
0.15558214485645294
0.017848744988441467
-0.1592181921005249
-0.16969619691371918
-0.1293991208076477
-0.06670492887496948
-0.035211071372032166
-0.02351054549217224
0.11938251554965973
0.0968993753194809
-0.16935299336910248
0.12356729805469513
-0.021604344248771667
0.10706819593906403
-0.072438083589077
0.020721375942230225
0.0417444109916687
0.10950203239917755
0.009932741522789001
-0.08669807016849518
-0.12783759832382202
0.06757453083992004
0.14773978292942047
-0.014622002840042114
-0.10763616114854813
0.16150535643100739
0.05044454336166382
0.043107375502586365
-0.12341126054525375
-0.09999126940965652
-0.023044735193252563
0.16639341413974762
-0.05477225035429001
0.07644222676753998
-0.033032312989234924
0.14506156742572784
0.12994427978992462
-0.10988485813140869
-0.06607787311077118
0.1722443550825119
0.030669718980789185
-0.10989400744438171
0.06311996281147003
0.07165046036243439
0.15290485322475433
-0.12579329311847687
0.10531558096408844
0.10495911538600922
-0.10202887654304504
0.11426223814487457
-0.10814169049263
-0.11726194620132446
-0.13383367657661438
-0.09386438131332397
-0.1052476316690445
0.08241806924343109
-0.15544743835926056
0.12405546009540558
0.13965074717998505
0.05077756941318512
0.043324559926986694
-0.03905808925628662
-0.018277764320373535
-0.12276872992515564
-0.16852901875972748
-0.09271585941314697
0.006547659635543823
-0.14252880215644836
-0.10058153420686722
0.03885863721370697
-0.07838782668113708
-0.12180575728416443
0.10393603146076202
-0.02112746238708496
-0.16287784278392792
0.07858820259571075
0.03655916452407837
-0.16096995770931244
-0.009528771042823792
-0.0911344438791275
-0.06052868813276291
0.11564238369464874
0.08031301200389862
0.1314503699541092
-0.063306525349617
0.01413165032863617
0.07409213483333588
0.004106581211090088
0.07422073185443878
0.07541508972644806
-0.004339158535003662
-0.029873594641685486
0.016908183693885803
-0.16862811148166656
0.10100062191486359
0.07485808432102203
0.06164935231208801
0.06006483733654022
0.0636930912733078
-0.13291767239570618
0.09631545841693878
0.07632912695407867
0.1089567095041275
0.028664126992225647
-0.04654335975646973
0.07428981363773346
-0.050350964069366455
0.142007514834404
0.0032585561275482178
0.08596678078174591
-0.12175362557172775
0.022131934762001038
0.00864507257938385
-0.03442630171775818
0.14119701087474823
-0.012800455093383789
0.05361182987689972
0.13497640192508698
0.15462665259838104
-0.1592506617307663
0.06485883891582489
0.16583554446697235
0.1324222832918167
0.0658499151468277
0.16100023686885834
0.10889489948749542
0.02468995749950409
0.04377470910549164
0.002253025770187378
-0.021394267678260803
-0.0396193265914917
0.06942987442016602
-0.12767097353935242
0.039514973759651184
-0.10149087756872177
0.16729070246219635
-0.1644870489835739
-0.06148344278335571
0.07705827057361603
-0.10434804856777191
0.0995749682188034
-0.028694242238998413
0.0001627504825592041
-0.1600828468799591
-0.07556529343128204
0.05773903429508209
-0.04330502450466156
-0.10991349816322327
0.010943308472633362
-0.153826504945755
-0.11156848073005676
-0.12258286774158478
0.011563152074813843
0.09375010430812836
-0.02901098132133484
-0.08401539921760559
-0.07526516914367676
0.14208687841892242
0.0003793388605117798
-0.1357669234275818
-0.16598884761333466
-0.021490782499313354
0.06768275797367096
-0.03634457290172577
0.05759507417678833
0.14033092558383942
-0.1426827758550644
-0.01927824318408966
0.06260237097740173
-0.015641286969184875
0.11320985853672028
-0.1357031762599945
0.0444493293762207
-0.054402515292167664
0.1644091159105301
0.04964609444141388
-0.15956491231918335
0.10029320418834686
-0.016323521733283997
0.15369652211666107
0.016689136624336243
0.08068816363811493
0.041084930300712585
0.04179878532886505
-0.08189018815755844
0.14461298286914825
0.011147633194923401
-0.022976413369178772
0.08030404150485992
-0.03793846070766449
-0.15849003195762634
-0.10168403387069702
-0.08144920319318771
-0.0801343098282814
-0.12899379432201385
0.1765965074300766
-0.16505546867847443
-0.13783618807792664
0.15706028044223785
-0.07530434429645538
-0.023201867938041687
-0.011795178055763245
-0.05184696614742279
0.11354516446590424
0.06368570029735565
-0.036993592977523804
-0.10784733295440674
0.1631847470998764
0.03261426091194153
-0.0012373626232147217
-0.06204909831285477
-0.10516142100095749
0.09966088831424713
-0.11646366864442825
-0.10701093077659607
-0.011971309781074524
-0.12922900915145874
-0.10601843893527985
-0.15395036339759827
0.08410395681858063
-0.016412481665611267
0.13643209636211395
-0.06910745054483414
-0.15202273428440094
0.15666384994983673
0.09599442780017853
-0.15269899368286133
0.01374557614326477
0.12866099178791046
0.044696033000946045
0.14885713160037994
0.004878982901573181
0.05869948863983154
-0.09844032675027847
-0.1326054334640503
-0.10515180975198746
-0.02449938654899597
0.13332082331180573
-0.1517760455608368
0.1539069563150406
0.0996391624212265
0.07590572535991669
0.13547666370868683
0.17479048669338226
-0.07562489062547684
-0.14174595475196838
-0.11987455189228058
0.11524839699268341
0.10677854716777802
-0.0963784009218216
0.05317811667919159
-0.0754041001200676
-0.12326311320066452
-0.13660287857055664
0.13795964419841766
0.029932454228401184
-0.05604910850524902
-0.11176469177007675
0.0933946818113327
0.11115123331546783
0.1040668934583664
-0.043770238757133484
-0.07459578663110733
0.15546663105487823
-0.10686181485652924
-0.030820176005363464
-0.10659272968769073
0.16743440926074982
0.17404212057590485
0.13470111787319183
-0.1302518993616104
-0.11460286378860474
0.14895091950893402
0.03717011213302612
-0.04349525272846222
-0.016010433435440063
0.039207905530929565
0.16870258748531342
-0.1102527603507042
-0.03603215515613556
-0.010078653693199158
-0.1057647317647934
-0.1372082233428955
0.15897293388843536
-0.01707741618156433
-0.09916248917579651
-0.14713825285434723
0.16838611662387848
0.16993184387683868
-0.09600843489170074
-0.008489534258842468
0.12043850123882294
0.09319286048412323
-0.07606294006109238
-0.05156129598617554
0.006740286946296692
0.07852007448673248
-0.02168068289756775
-0.14802981913089752
-0.032290637493133545
-0.09393948316574097
0.036444634199142456
0.05310527980327606
-0.019797682762145996
-0.14049896597862244
-0.14880657196044922
-0.07608239352703094
-0.09376693516969681
-0.021464988589286804
0.08366964757442474
-0.025925055146217346
0.05824801325798035
0.04589492082595825
0.053078681230545044
-0.11110785603523254
-0.10878634452819824
-0.06611066311597824
0.1688910871744156
-0.14498580992221832
-0.12180253863334656
0.15662704408168793
-0.14005976915359497
0.07450966536998749
-0.0040406882762908936
0.13682542741298676
-0.061864450573921204
-0.052109964191913605
-0.17222382128238678
0.15284334123134613
0.13673143088817596
-0.1553269773721695
0.11629508435726166
-0.05299856513738632
-0.12143822014331818
0.013192787766456604
-0.07424428313970566
-0.13185960054397583
-0.09916110336780548
-0.06910251826047897
0.09580917656421661
-0.12824350595474243
0.15644191205501556
-0.05133269727230072
0.0835055559873581
0.07530049979686737
-0.04355594515800476
0.01727268099784851
-0.15432940423488617
-0.13327117264270782
0.16834686696529388
0.08757759630680084
-0.1163998395204544
-0.1040690615773201
-0.06859780848026276
-0.17278650403022766
0.1438482254743576
-0.07001230120658875
0.10184670984745026
-0.17402534186840057
0.09791629016399384
0.07897503674030304
0.11066795885562897
0.09643195569515228
0.15209729969501495
0.03925403952598572
-0.03873196244239807
-0.11178223043680191
-0.07647823542356491
-0.09801207482814789
-0.05713944882154465
0.10433582961559296
-0.02296718955039978
0.1492302268743515
-0.11054608225822449
0.024307534098625183
-0.11156696081161499
0.08599485456943512
-0.05317096412181854
-0.08772149682044983
0.0764787346124649
-0.1338459849357605
-0.015106886625289917
-0.03025101125240326
-0.07915554940700531
-0.05400741100311279
0.011110961437225342
-0.08179531246423721
0.08071841299533844
0.10388733446598053
-0.0653483048081398
0.09922130405902863
0.16008783876895905
-0.14709657430648804
0.076653853058815
-0.032326847314834595
0.004408851265907288
0.04341186583042145
-0.08030093461275101
0.03101867437362671
0.06560543179512024
0.15574650466442108
0.11336477100849152
0.17071907222270966
-0.07087656110525131
0.12101756036281586
0.05816119909286499
-0.02170373499393463
0.07613028585910797
0.14013491570949554
-0.0598355233669281
0.04085220396518707
0.16678915917873383
0.0032225698232650757
-0.025175541639328003
0.10563822090625763
-0.17098596692085266
-0.006070256233215332
0.0952916294336319
0.11393721401691437
-0.15407635271549225
0.14417879283428192
0.027121558785438538
-0.027979210019111633
-0.09187281876802444
-0.004334568977355957
-0.0930975005030632
-0.027850210666656494
-0.12655331194400787
-0.05348580330610275
-0.16437892615795135
0.08422262966632843
0.1218528300523758
0.04580441117286682
0.02167057991027832
0.07411713898181915
0.12201736867427826
-0.0687042698264122
-0.09653636813163757
0.1736450046300888
0.022558867931365967
-0.12824097275733948
0.09236536920070648
-0.07750900089740753
0.040926650166511536
-0.14421917498111725
0.0026651769876480103
-0.06669681519269943
0.0034511536359786987
-0.1364382654428482
-0.01711338758468628
0.0030643343925476074
0.09079618752002716
-0.12891551852226257
0.05839186906814575
-0.0982828438282013
-0.052574314177036285
0.12134571373462677
0.17507965862751007
0.13139604032039642
0.08887873589992523
-0.03315497934818268
0.06648220121860504
0.09803952276706696
0.0013304352760314941
-0.022441580891609192
-0.1470055878162384
-0.14683854579925537
0.0663343071937561
0.17223481833934784
-0.03104551136493683
-0.0836707204580307
0.14062301814556122
-0.04319976270198822
-0.13608336448669434
0.008355021476745605
0.026232093572616577
-0.10837851464748383
0.09003324806690216
0.049632638692855835
-0.038320332765579224
0.15892089903354645
-0.1098969578742981
-0.06122097373008728
-0.1695805788040161
0.0060255080461502075
0.11564697325229645
0.05641072988510132
-0.1323871612548828
-0.057625994086265564
0.17071299254894257
0.0744740217924118
-0.08686939626932144
-0.15761294960975647
0.015193730592727661
0.1371675580739975
0.08856992423534393
0.09641985595226288
0.1344955414533615
-0.0717535987496376
-0.07159347832202911
0.09972645342350006
-0.05337291210889816
-0.14970307052135468
-0.1095002070069313
-0.03834277391433716
-0.06094149500131607
0.11192087829113007
0.05308137834072113
-0.026106446981430054
0.1425335556268692
-0.0037843286991119385
-0.028031527996063232
0.1316499263048172
-0.1425376534461975
-0.025095835328102112
0.16995076835155487
0.008781969547271729
0.15336783230304718
-0.010681211948394775
-0.14273566007614136
0.14994682371616364
-0.0025852620601654053
0.006574362516403198
-0.05202164500951767
0.06705282628536224
-0.10235641896724701
-0.11469291150569916
-0.006137922406196594
-0.07650120556354523
-0.1252651810646057
-0.05003538727760315
-0.0877821072936058
-0.08320619910955429
-0.047929927706718445
-0.0442337691783905
-0.12023460865020752
0.015313282608985901
0.08086954057216644
0.01641039550304413
0.14834551513195038
-0.14775939285755157
-0.013750404119491577
-0.05243942141532898
-0.004211589694023132
-0.09339950233697891
-0.01097920536994934
0.12440221011638641
0.0466165691614151
-0.021918028593063354
-0.06766149401664734
-0.16483357548713684
0.0721706748008728
0.11448313295841217
0.16147159039974213
-0.1599009931087494
0.06565870344638824
0.1011277288198471
-0.02069985866546631
-0.04627038538455963
-0.04760830104351044
0.07728131115436554
-0.14310452342033386
-0.11128643155097961
-0.12680189311504364
0.005062535405158997
0.1598787158727646
-0.16043056547641754
0.06691217422485352
0.1762157529592514
0.10449890792369843
0.1279703825712204
0.08207057416439056
0.1460248976945877
-0.07029525190591812
0.11535210907459259
-0.08774600923061371
0.10145463049411774
0.13694895803928375
-0.13535413146018982
-0.019014760851860046
0.10593946278095245
-0.052856869995594025
-0.17438142001628876
0.01934419572353363
-0.14841869473457336
-0.16703839600086212
-0.04261709749698639
-0.011259958148002625
-0.14753305912017822
0.0742170661687851
-0.14973744750022888
-0.13288092613220215
-0.11998371034860611
-0.035202160477638245
0.16229148209095
0.10266159474849701
0.11939390003681183
-0.014007985591888428
0.17262513935565948
-0.04317742586135864
0.05255870521068573
-0.13338355720043182
0.0193776935338974
0.03853222727775574
-0.11347588151693344
-0.12654733657836914
-0.02499249577522278
-0.1352536976337433
0.08274723589420319
-0.13131648302078247
0.14429475367069244
-0.10437098145484924
0.05916604399681091
0.03183935582637787
0.14878533780574799
-0.11814606189727783
0.04741545021533966
0.1096697598695755
-0.10913816839456558
0.04157453775405884
-0.01678028702735901
-0.029349982738494873
0.02787679433822632
-0.04891335964202881
0.05305369198322296
-0.10702991485595703
-0.16429494321346283
0.00914396345615387
-0.01153440773487091
0.17397062480449677
-0.018231377005577087
-0.05861099064350128
0.025915026664733887
0.02152518928050995
-0.08511471748352051
-0.1557946801185608
0.13588525354862213
0.08515416085720062
0.036065444350242615
-0.06559322029352188
-0.17021630704402924
0.06436257064342499
-0.13059647381305695
-0.03261055052280426
-0.018542364239692688
-0.1556941419839859
-0.1426394283771515
-0.17013029754161835
0.026943504810333252
0.05561921000480652
0.08425204455852509
-0.004481032490730286
-0.16125357151031494
-0.0041238367557525635
-0.08977613598108292
-0.12059631943702698
-0.09234043210744858
-0.017580881714820862
-0.11744847148656845
-0.028294354677200317
0.10676653683185577
-0.07966304570436478
-0.1414012908935547
0.1397429257631302
-0.16751739382743835
0.10570506751537323
0.0062131136655807495
0.12599219381809235
0.05946667492389679
0.04670801758766174
-0.03991889953613281
-0.02510736882686615
-0.04061104357242584
-0.11056304723024368
-0.06971295177936554
0.16754518449306488
-0.13958005607128143
-0.071352019906044
0.006570637226104736
0.1705750972032547
-0.15845486521720886
-0.05841154605150223
-0.011061564087867737
0.08512847125530243
-0.123472198843956
-0.10429968684911728
-0.13459153473377228
0.004539474844932556
0.029901519417762756
-0.051217108964920044
-0.17174354195594788
0.03171122074127197
-0.14318475127220154
-0.1754702925682068
-0.009119004011154175
-0.10861586034297943
-0.005851387977600098
0.014278113842010498
0.12894336879253387
-0.0910276249051094
0.0034075379371643066
0.0035857856273651123
0.15336374938488007
0.055567726492881775
-0.06677602976560593
-0.16909606754779816
0.1662624627351761
0.07385586202144623
-4.6506524085998535e-05
0.05468694865703583
-0.11529797315597534
0.08458070456981659
0.1354258507490158
-0.014571920037269592
0.10228405892848969
0.052204325795173645
-0.04657091200351715
0.021725386381149292
-0.02584211528301239
0.15836308896541595
0.007410705089569092
0.10920237004756927
-0.17215193808078766
0.14397971332073212
0.05026334524154663
-0.007574498653411865
-0.04035720229148865
-0.09042378515005112
-0.0937727764248848
0.11996565759181976
0.07066749036312103
0.05255343019962311
0.11078841984272003
0.10066457092761993
0.08771316707134247
0.056852057576179504
0.1764541119337082
0.07512389123439789
0.03302374482154846
0.03277990221977234
-0.08207066357135773
0.015143156051635742
-0.16989517211914062
0.13170726597309113
0.1524984985589981
-0.06889057904481888
0.02362695336341858
-0.006741911172866821
-0.06884076446294785
-0.07806970179080963
0.061379507184028625
-0.03601787984371185
-0.03826388716697693
0.14798958599567413
-0.14982007443904877
-0.07405909150838852
-0.12595655024051666
-0.00717887282371521
-0.03438346087932587
0.17482571303844452
-0.16554994881153107
-0.14214669167995453
-0.026001781225204468
0.003631904721260071
-0.0757218673825264
-0.14153441786766052
-0.020003974437713623
-0.14809264242649078
-0.11522640287876129
-0.07741307467222214
0.17208640277385712
-0.1287558227777481
-0.1699792742729187
0.1617613583803177
0.16306306421756744
0.09239919483661652
-0.11802560836076736
-0.13501746952533722
-0.009297683835029602
-0.13761800527572632
0.13830263912677765
-0.025350570678710938
0.06854389607906342
0.14122076332569122
-0.17105084657669067
-0.01794499158859253
0.13404656946659088
0.11254964768886566
0.003273501992225647
0.006599292159080505
0.14327271282672882
0.0888763815164566
-0.0030783861875534058
0.03895661234855652
0.014455214142799377
-0.16432954370975494
-0.08031490445137024
-0.10761156678199768
0.008059024810791016
0.01350642740726471
-0.10142223536968231
-0.11563223600387573
0.053981661796569824
-0.0016833245754241943
0.065530925989151
-0.1221335157752037
-0.15144921839237213
-0.15692834556102753
-0.09056691825389862
-0.007070571184158325
-0.018806681036949158
0.13565324246883392
0.049753159284591675
-0.0172947496175766
0.08759240806102753
0.05914895236492157
0.012871623039245605
0.028923526406288147
0.10115696489810944
-0.0536898598074913
0.04635371267795563
-0.0548824667930603
0.08565394580364227
-0.08142996579408646
-0.15070503950119019
-0.06976544857025146
0.1342400163412094
0.10766257345676422
0.13309170305728912
-0.02232798933982849
0.17195968329906464
-0.07806797325611115
0.07102733850479126
0.14475120604038239
0.07903061807155609
-0.11400486528873444
-0.12811484932899475
0.11240412294864655
-0.10278600454330444
0.16094164550304413
-0.13732600212097168
0.1378774493932724
-0.14672961831092834
-0.11233238875865936
0.09402979910373688
0.04190279543399811
-0.13382872939109802
0.12559391558170319
0.02073018252849579
-0.01133139431476593
0.039780616760253906
0.1668771356344223
0.027357518672943115
-0.11188938468694687
0.02622467279434204
-0.1427355408668518
-0.0709143877029419
0.060343071818351746
-0.01861223578453064
0.08788685500621796
-0.13201510906219482
0.0811869353055954
-0.1560858190059662
-0.1731911301612854
-0.05698806047439575
-0.07931691408157349
0.176286980509758
-0.1634387969970703
-0.10719703137874603
-0.013776600360870361
-0.11681967973709106
0.15520699322223663
0.06969769299030304
-0.0842757374048233
-0.09841305762529373
-0.05667600780725479
-0.023869410157203674
-0.09039575606584549
-0.11599172651767731
-0.07304561138153076
-0.019085630774497986
0.07248726487159729
0.03316865861415863
0.016123846173286438
0.10224716365337372
0.1562751680612564
0.15921933948993683
-0.056785836815834045
0.16850899159908295
0.08018212020397186
-0.07258392870426178
0.008834302425384521
-0.07362255454063416
0.10138742625713348
-0.039965227246284485
-0.12432831525802612
0.10693709552288055
-0.16806593537330627
0.022216573357582092
0.03567981719970703
0.09443043172359467
0.1612296849489212
-0.07188751548528671
0.10219813883304596
0.14700372517108917
-0.07763824611902237
-0.1656298041343689
-0.07051165401935577
-0.09928570687770844
0.12036831676959991
-0.15156307816505432
-0.05678208917379379
-0.16853955388069153
0.13097621500492096
-0.04652051627635956
-0.0785951241850853
0.09693782031536102
0.02098315954208374
0.09520427882671356
-0.07484500110149384
-0.17059242725372314
0.15182484686374664
-0.016959741711616516
-0.10165729373693466
-0.12564685940742493
-0.10013199597597122
0.12110944092273712
0.12600551545619965
-0.08473514020442963
0.0031886249780654907
0.1067623645067215
0.07040680944919586
0.11190672218799591
-0.04916781187057495
0.09436620771884918
-0.05901709198951721
-0.17443448305130005
0.15262894332408905
-0.047808751463890076
-0.09500817954540253
0.09340332448482513
0.15379320085048676
0.008073687553405762
-0.13106442987918854
0.11502231657505035
-0.12125574052333832
0.07883591949939728
0.05075904726982117
-0.16266153752803802
0.001028209924697876
-0.06342597305774689
-0.10636920481920242
-0.0272475928068161
0.031765908002853394
0.0012479275465011597
0.08918826282024384
0.043143972754478455
0.10023005306720734
0.12427167594432831
-0.01884998381137848
-0.00978974997997284
-0.07504518330097198
0.009515151381492615
0.15851320326328278
0.06111031770706177
0.06776674091815948
-0.10975243896245956
0.0023024678230285645
-0.08520039916038513
-0.05946924537420273
-0.11939491331577301
-0.1282193511724472
-0.1628635972738266
-0.06750359386205673
-0.05866736173629761
0.10236768424510956
-0.05841062217950821
-0.06268591433763504
0.11103330552577972
0.05368754267692566
-0.06580007821321487
0.03493422269821167
0.15053774416446686
-0.16342836618423462
-0.17296859622001648
0.12347231805324554
0.07658959925174713
-0.027461513876914978
0.1018746942281723
0.1762458235025406
-0.011353537440299988
-0.14150305092334747
0.09916402399539948
-0.16945962607860565
-0.14424532651901245
-0.00482138991355896
-0.08793555945158005
0.014156073331832886
0.028274089097976685
0.15799789130687714
0.16579188406467438
0.14753331243991852
-0.11990658193826675
-0.04489661753177643
-0.047546252608299255
-0.03963084518909454
0.033257678151130676
0.10850201547145844
0.003211379051208496
0.04021371901035309
0.048491060733795166
-0.019392937421798706
-0.14922158420085907
-0.03480120003223419
-0.14764021337032318
0.15915699303150177
0.12977249920368195
0.14565594494342804
-0.08170366287231445
-0.035680294036865234
0.0076843202114105225
0.16957665979862213
0.09073524177074432
0.06095600128173828
-0.021452412009239197
-0.06990092992782593
-0.023366779088974
0.03765396773815155
0.1178705245256424
-0.08776193857192993
0.08736048638820648
0.14365963637828827
-0.10060526430606842
-0.15673717856407166
-0.10156553983688354
0.13090474903583527
-0.07384886592626572
0.10739190876483917
-0.059614479541778564
0.03157120943069458
-0.00036644935607910156
0.07478614151477814
0.17630963027477264
-0.025042623281478882
0.047504931688308716
-0.018363192677497864
-0.051603540778160095
0.046283334493637085
-0.11516153812408447
0.12063945829868317
-0.07290060073137283
-0.1484457552433014
0.054432570934295654
0.0031443238258361816
-0.0895206406712532
0.12776775658130646
-0.05263909697532654
-0.062291041016578674
0.022196993231773376
0.07334674894809723
-0.0766521543264389
0.012004628777503967
-0.06920278817415237
-0.11269710958003998
0.10246233642101288
0.09932221472263336
-0.10067010670900345
-0.10409925878047943
-0.0335177481174469
-0.12958484888076782
-0.08574584126472473
0.06098507344722748
-0.09422547370195389
-0.010305479168891907
0.15172605216503143
-0.0778488963842392
-0.021617934107780457
-0.10166119039058685
-0.12819406390190125
-0.0903814509510994
-0.008116677403450012
-0.01971207559108734
0.041270628571510315
-0.014222636818885803
-0.050202205777168274
0.14972104132175446
0.12228412926197052
-0.043464481830596924
0.027114272117614746
-0.015317961573600769
-0.11823417246341705
0.04969798028469086
-0.13034576177597046
0.060455843806266785
0.018115490674972534
0.04602399468421936
0.17624853551387787
0.17411784827709198
-0.04688335955142975
0.06214940547943115
-0.12671229243278503
0.15387926995754242
-0.05003954470157623
0.17483992874622345
-0.13134077191352844
-0.1565065234899521
0.020853370428085327
0.025034785270690918
-0.15089334547519684
0.12698356807231903
-0.08406637609004974
0.0854140967130661
-0.10828205943107605
-0.03677701950073242
0.08683215081691742
0.014151245355606079
-0.08749624341726303
-0.06955445557832718
0.14349590241909027
-0.15226653218269348
-0.019496455788612366
0.1622529774904251
-0.0002508014440536499
-0.016114145517349243
-0.0467941015958786
0.02064990997314453
-0.13146497309207916
-0.11008090525865555
0.0790124386548996
-0.13093234598636627
0.1688188761472702
0.16020487248897552
-0.16061455011367798
0.0007010847330093384
-0.1500389277935028
-0.014982238411903381
0.10621587932109833
-0.0749797448515892
0.16870607435703278
0.15256188809871674
0.10423733294010162
-0.030020669102668762
-0.03533336520195007
-0.0950179398059845
0.13631294667720795
0.09177909791469574
-0.0657544955611229
-0.14723984897136688
0.07739068567752838
-0.08469954878091812
0.1391989141702652
0.07533971965312958
-0.04506140947341919
-0.15873880684375763
0.1665482372045517
0.0915365070104599
0.05437900125980377
0.00036895275115966797
-0.14711526036262512
0.07415886223316193
-0.03352248668670654
0.11129774153232574
-0.055005453526973724
-0.011062070727348328
-0.01672595739364624
-0.11422482877969742
-0.15994073450565338
-0.16302934288978577
-0.08051362633705139
0.12475739419460297
-0.10667693614959717
-0.03327891230583191
0.0829818993806839
-0.15945079922676086
-0.06491412967443466
0.11625434458255768
0.1697777360677719
-0.12252625823020935
0.15808899700641632
-0.013988018035888672
0.1763392835855484
-0.07228367775678635
-0.1654433012008667
-0.05831292271614075
-0.06394422799348831
0.14776067435741425
-0.00463123619556427
0.05054342746734619
0.15656901895999908
0.015092998743057251
-0.09976009279489517
0.09955911338329315
0.07912804186344147
0.11044804751873016
0.14746125042438507
0.020613446831703186
-0.033924251794815063
0.0425882488489151
-0.17222589254379272
-0.11541342735290527
-0.1285131573677063
-0.07808204740285873
-0.17361360788345337
0.10441483557224274
0.0596420019865036
0.05476081371307373
0.16768471896648407
0.11329089105129242
0.025719523429870605
0.14795799553394318
0.00922173261642456
0.16809670627117157
0.06741379201412201
0.052547723054885864
0.04841223359107971
0.05246827006340027
-0.16985437273979187
0.08950619399547577
-0.05196584016084671
0.1616905778646469
0.08249531686306
-0.1377403438091278
-0.006602853536605835
0.09228099882602692
0.11356635391712189
0.06627166271209717
-0.15879888832569122
0.13592283427715302
0.096036896109581
-0.08700811862945557
0.019564613699913025
0.0023307055234909058
-0.05482065677642822
0.12840227782726288
0.042357102036476135
-0.029757902026176453
-0.07820684462785721
-0.08093937486410141
0.09423087537288666
0.13195167481899261
0.06043238937854767
0.004330754280090332
0.040170639753341675
0.012983202934265137
-0.019385606050491333
-0.14587745070457458
-0.14414875209331512
0.11284621059894562
-0.15246844291687012
0.13617537915706635
-0.08903877437114716
-0.03416132926940918
0.10821013152599335
-0.05615955591201782
-0.1735568344593048
0.0657501220703125
-0.0983886793255806
0.03533239662647247
0.10854606330394745
0.16186334192752838
